<?xml version="1.0"?>
<NeuralNetwork xmlns:xsi="http://www.w3.org/2001/XMLSchema-instance" xmlns:xsd="http://www.w3.org/2001/XMLSchema">
  <layers>
    <int>10</int>
    <int>10</int>
    <int>10</int>
  </layers>
  <neurons>
    <ArrayOfFloat>
      <float>48</float>
      <float>46</float>
      <float>17</float>
      <float>2</float>
      <float>24</float>
      <float>32</float>
      <float>41</float>
      <float>9</float>
      <float>38</float>
      <float>30</float>
    </ArrayOfFloat>
    <ArrayOfFloat>
      <float>1</float>
      <float>1</float>
      <float>-0.9999985</float>
      <float>-1</float>
      <float>0.839140236</float>
      <float>1</float>
      <float>0.99999994</float>
      <float>-1</float>
      <float>0.99999994</float>
      <float>-1</float>
    </ArrayOfFloat>
    <ArrayOfFloat>
      <float>-0.835479438</float>
      <float>-0.774776638</float>
      <float>0.896945834</float>
      <float>0.492533952</float>
      <float>-0.293304473</float>
      <float>0.9215934</float>
      <float>0.595584333</float>
      <float>-0.60537535</float>
      <float>-0.468016475</float>
      <float>-0.200221017</float>
    </ArrayOfFloat>
  </neurons>
  <biases>
    <ArrayOfFloat>
      <float>0.377320945</float>
      <float>-0.133372515</float>
      <float>0.211115</float>
      <float>-0.3658089</float>
      <float>-0.3158128</float>
      <float>0.453928649</float>
      <float>-0.003923416</float>
      <float>0.37504822</float>
      <float>0.346196949</float>
      <float>0.359370768</float>
    </ArrayOfFloat>
    <ArrayOfFloat>
      <float>0.266951561</float>
      <float>0.12877357</float>
      <float>-0.23547107</float>
      <float>0.4469251</float>
      <float>-0.120631576</float>
      <float>0.24464035</float>
      <float>-0.162435919</float>
      <float>0.00104242563</float>
      <float>-0.492919266</float>
      <float>0.315958321</float>
    </ArrayOfFloat>
    <ArrayOfFloat>
      <float>-0.451815724</float>
      <float>0.1950159</float>
      <float>0.424609184</float>
      <float>0.133117735</float>
      <float>0.212308347</float>
      <float>0.08481693</float>
      <float>-0.2550198</float>
      <float>-0.353152</float>
      <float>-0.0496518</float>
      <float>-0.256556958</float>
    </ArrayOfFloat>
  </biases>
  <weights>
    <ArrayOfArrayOfFloat>
      <ArrayOfFloat>
        <float>-0.369472861</float>
        <float>0.483340621</float>
        <float>-0.1503456</float>
        <float>0.244480073</float>
        <float>0.417874336</float>
        <float>0.412606657</float>
        <float>0.1600737</float>
        <float>-0.4681159</float>
        <float>-0.313368559</float>
        <float>0.416757882</float>
      </ArrayOfFloat>
      <ArrayOfFloat>
        <float>0.197553635</float>
        <float>-0.164322019</float>
        <float>0.0327641964</float>
        <float>-0.156243086</float>
        <float>0.4953503</float>
        <float>0.445511878</float>
        <float>0.210609376</float>
        <float>-0.267632484</float>
        <float>0.311730623</float>
        <float>-0.218985438</float>
      </ArrayOfFloat>
      <ArrayOfFloat>
        <float>-0.159712911</float>
        <float>0.3852501</float>
        <float>0.00205606222</float>
        <float>0.09181553</float>
        <float>-0.0287932754</float>
        <float>0.4085483</float>
        <float>-0.3317384</float>
        <float>0.304240525</float>
        <float>-0.351874</float>
        <float>-0.174386442</float>
      </ArrayOfFloat>
      <ArrayOfFloat>
        <float>-0.06480828</float>
        <float>-0.424528122</float>
        <float>-0.349056721</float>
        <float>-0.171002835</float>
        <float>-0.0449131131</float>
        <float>0.0098541975</float>
        <float>-0.4946376</float>
        <float>-0.253707856</float>
        <float>0.255294025</float>
        <float>-0.306994975</float>
      </ArrayOfFloat>
      <ArrayOfFloat>
        <float>0.3108099</float>
        <float>-0.468076766</float>
        <float>-0.459345758</float>
        <float>0.3165661</float>
        <float>0.344648</float>
        <float>-0.06125042</float>
        <float>0.388495028</float>
        <float>-0.192904472</float>
        <float>-0.135989338</float>
        <float>-0.006960243</float>
      </ArrayOfFloat>
      <ArrayOfFloat>
        <float>0.100450814</float>
        <float>0.238855958</float>
        <float>-0.438639373</float>
        <float>0.3955769</float>
        <float>0.12939924</float>
        <float>0.4715203</float>
        <float>-0.292472154</float>
        <float>-0.0159178376</float>
        <float>0.4995166</float>
        <float>0.2355693</float>
      </ArrayOfFloat>
      <ArrayOfFloat>
        <float>-0.0294116437</float>
        <float>0.08207643</float>
        <float>0.110001326</float>
        <float>0.08726114</float>
        <float>-0.292190552</float>
        <float>-0.151674986</float>
        <float>0.41097796</float>
        <float>0.430010259</float>
        <float>0.114913285</float>
        <float>-0.288260579</float>
      </ArrayOfFloat>
      <ArrayOfFloat>
        <float>0.166392744</float>
        <float>-0.30943954</float>
        <float>-0.296683222</float>
        <float>-0.155031145</float>
        <float>-0.303552121</float>
        <float>-0.4653929</float>
        <float>0.07083911</float>
        <float>-0.08826679</float>
        <float>-0.026589185</float>
        <float>0.25870043</float>
      </ArrayOfFloat>
      <ArrayOfFloat>
        <float>0.246296585</float>
        <float>0.08740932</float>
        <float>-0.33352688</float>
        <float>-0.118670464</float>
        <float>-0.048593998</float>
        <float>-0.07742095</float>
        <float>0.240354538</float>
        <float>0.481609643</float>
        <float>-0.07415882</float>
        <float>-0.29019016</float>
      </ArrayOfFloat>
      <ArrayOfFloat>
        <float>-0.471430421</float>
        <float>-0.252476484</float>
        <float>0.473018825</float>
        <float>0.245967925</float>
        <float>-0.0513400435</float>
        <float>0.4549768</float>
        <float>-0.351834834</float>
        <float>-0.320363641</float>
        <float>-0.165000051</float>
        <float>-0.277433753</float>
      </ArrayOfFloat>
    </ArrayOfArrayOfFloat>
    <ArrayOfArrayOfFloat>
      <ArrayOfFloat>
        <float>-0.245985121</float>
        <float>0.184728026</float>
        <float>-0.0815745</float>
        <float>0.378514528</float>
        <float>0.05289024</float>
        <float>-0.3638664</float>
        <float>-0.238217562</float>
        <float>-0.05736497</float>
        <float>-0.0746277</float>
        <float>-0.178964585</float>
      </ArrayOfFloat>
      <ArrayOfFloat>
        <float>-0.3730755</float>
        <float>0.0220379233</float>
        <float>0.236914635</float>
        <float>0.467059433</float>
        <float>0.215516031</float>
        <float>0.109422326</float>
        <float>-0.358153433</float>
        <float>0.4549151</float>
        <float>0.362098455</float>
        <float>0.0114736557</float>
      </ArrayOfFloat>
      <ArrayOfFloat>
        <float>-0.165786237</float>
        <float>0.155611575</float>
        <float>-0.269587636</float>
        <float>-0.368653268</float>
        <float>0.4094131</float>
        <float>-0.3548875</float>
        <float>0.4437849</float>
        <float>-0.316407919</float>
        <float>0.122552156</float>
        <float>0.467714369</float>
      </ArrayOfFloat>
      <ArrayOfFloat>
        <float>0.1126852</float>
        <float>-0.382553965</float>
        <float>0.302976549</float>
        <float>0.477087855</float>
        <float>-0.269071162</float>
        <float>0.287811816</float>
        <float>0.395227075</float>
        <float>-0.48579812</float>
        <float>0.0546825528</float>
        <float>-0.458484352</float>
      </ArrayOfFloat>
      <ArrayOfFloat>
        <float>0.3870399</float>
        <float>-0.476037234</float>
        <float>-0.2175194</float>
        <float>0.331049085</float>
        <float>0.309128582</float>
        <float>-0.267225027</float>
        <float>-0.263147831</float>
        <float>0.232202649</float>
        <float>0.2566952</float>
        <float>0.06548095</float>
      </ArrayOfFloat>
      <ArrayOfFloat>
        <float>0.0393734574</float>
        <float>0.419493318</float>
        <float>-0.4562188</float>
        <float>0.04976958</float>
        <float>0.114595711</float>
        <float>-0.175353467</float>
        <float>-0.31944108</float>
        <float>-0.486677974</float>
        <float>0.195344687</float>
        <float>-0.365978956</float>
      </ArrayOfFloat>
      <ArrayOfFloat>
        <float>0.418591976</float>
        <float>0.304433644</float>
        <float>0.0463261</float>
        <float>-0.3160988</float>
        <float>-0.06540653</float>
        <float>0.235721767</float>
        <float>-0.0546953678</float>
        <float>-0.0139299631</float>
        <float>-0.0376261473</float>
        <float>0.153947473</float>
      </ArrayOfFloat>
      <ArrayOfFloat>
        <float>-0.05956152</float>
        <float>0.353887975</float>
        <float>-0.3735242</float>
        <float>0.0468260646</float>
        <float>-0.149322957</float>
        <float>-0.463505715</float>
        <float>-0.400625736</float>
        <float>-0.374393433</float>
        <float>-0.4515386</float>
        <float>-0.09711859</float>
      </ArrayOfFloat>
      <ArrayOfFloat>
        <float>0.1345036</float>
        <float>0.4378255</float>
        <float>-0.3468598</float>
        <float>0.283314526</float>
        <float>-0.345415831</float>
        <float>-0.08056486</float>
        <float>0.2999081</float>
        <float>0.479450226</float>
        <float>-0.4112646</float>
        <float>0.132525563</float>
      </ArrayOfFloat>
      <ArrayOfFloat>
        <float>-0.166503817</float>
        <float>0.108148336</float>
        <float>-0.454899579</float>
        <float>-0.353095233</float>
        <float>0.34916693</float>
        <float>0.3088495</float>
        <float>-0.2961201</float>
        <float>0.324822664</float>
        <float>-0.377301127</float>
        <float>0.299650133</float>
      </ArrayOfFloat>
    </ArrayOfArrayOfFloat>
  </weights>
  <fitness>0.475</fitness>
</NeuralNetwork>