<?xml version="1.0"?>
<NeuralNetwork xmlns:xsi="http://www.w3.org/2001/XMLSchema-instance" xmlns:xsd="http://www.w3.org/2001/XMLSchema">
  <layers>
    <int>52</int>
    <int>52</int>
    <int>52</int>
    <int>52</int>
  </layers>
  <neurons>
    <ArrayOfFloat>
      <float>14</float>
      <float>2</float>
      <float>3</float>
      <float>4</float>
      <float>5</float>
      <float>6</float>
      <float>7</float>
      <float>8</float>
      <float>9</float>
      <float>10</float>
      <float>11</float>
      <float>12</float>
      <float>13</float>
      <float>14</float>
      <float>2</float>
      <float>3</float>
      <float>4</float>
      <float>5</float>
      <float>6</float>
      <float>7</float>
      <float>8</float>
      <float>9</float>
      <float>10</float>
      <float>11</float>
      <float>12</float>
      <float>13</float>
      <float>14</float>
      <float>2</float>
      <float>3</float>
      <float>4</float>
      <float>5</float>
      <float>6</float>
      <float>7</float>
      <float>8</float>
      <float>9</float>
      <float>10</float>
      <float>11</float>
      <float>12</float>
      <float>13</float>
      <float>14</float>
      <float>2</float>
      <float>3</float>
      <float>4</float>
      <float>5</float>
      <float>6</float>
      <float>7</float>
      <float>8</float>
      <float>9</float>
      <float>10</float>
      <float>11</float>
      <float>12</float>
      <float>13</float>
    </ArrayOfFloat>
    <ArrayOfFloat>
      <float>-1</float>
      <float>1</float>
      <float>-1</float>
      <float>0.9996947</float>
      <float>0.9986777</float>
      <float>0.9999999</float>
      <float>-0.999941945</float>
      <float>-0.4146769</float>
      <float>1</float>
      <float>1</float>
      <float>-0.9999998</float>
      <float>1</float>
      <float>1</float>
      <float>-1</float>
      <float>1</float>
      <float>-1</float>
      <float>-0.9999884</float>
      <float>-1</float>
      <float>1</float>
      <float>-0.9999998</float>
      <float>0.869508862</float>
      <float>0.9999938</float>
      <float>1</float>
      <float>-1</float>
      <float>0.999662459</float>
      <float>-1</float>
      <float>0.994113863</float>
      <float>-0.999563336</float>
      <float>-0.9999628</float>
      <float>1</float>
      <float>0.9963822</float>
      <float>1</float>
      <float>1</float>
      <float>-1</float>
      <float>-1</float>
      <float>-1</float>
      <float>1</float>
      <float>1</float>
      <float>0.9999998</float>
      <float>0.997995555</float>
      <float>1</float>
      <float>1</float>
      <float>-1</float>
      <float>-1</float>
      <float>1</float>
      <float>-0.999994934</float>
      <float>-1</float>
      <float>0.9152901</float>
      <float>-0.9351848</float>
      <float>-0.9999475</float>
      <float>-0.910345137</float>
      <float>-1</float>
    </ArrayOfFloat>
    <ArrayOfFloat>
      <float>-0.181799829</float>
      <float>0.811397731</float>
      <float>0.985983968</float>
      <float>0.7472499</float>
      <float>0.994956</float>
      <float>0.96467483</float>
      <float>-0.111862577</float>
      <float>0.7671283</float>
      <float>0.0253061559</float>
      <float>-0.5968963</float>
      <float>0.9635784</float>
      <float>0.2970614</float>
      <float>0.9282352</float>
      <float>-0.7780481</float>
      <float>0.4545074</float>
      <float>-0.822494745</float>
      <float>-0.9658678</float>
      <float>0.9990591</float>
      <float>-0.309267253</float>
      <float>0.447791219</float>
      <float>0.970973551</float>
      <float>-0.9824902</float>
      <float>0.449287862</float>
      <float>-0.9971058</float>
      <float>-0.9928106</float>
      <float>-0.95383966</float>
      <float>0.9907666</float>
      <float>0.7675367</float>
      <float>-0.08508954</float>
      <float>-0.982576966</float>
      <float>-0.789886057</float>
      <float>0.972804844</float>
      <float>-0.789108455</float>
      <float>0.47709018</float>
      <float>0.9915709</float>
      <float>-0.449285716</float>
      <float>-0.989067256</float>
      <float>0.845529437</float>
      <float>-0.929302037</float>
      <float>-0.3863244</float>
      <float>-0.952130258</float>
      <float>0.314567149</float>
      <float>-0.436926752</float>
      <float>0.9874013</float>
      <float>0.8881444</float>
      <float>-0.9274414</float>
      <float>0.9979744</float>
      <float>-0.09830075</float>
      <float>-0.9998882</float>
      <float>0.5854293</float>
      <float>-0.0608868822</float>
      <float>-0.1399861</float>
    </ArrayOfFloat>
    <ArrayOfFloat>
      <float>0.9986673</float>
      <float>0.264419436</float>
      <float>0.7293299</float>
      <float>-0.9440816</float>
      <float>-0.8869432</float>
      <float>-0.9910098</float>
      <float>-0.4695641</float>
      <float>0.024844626</float>
      <float>0.9059487</float>
      <float>0.956033051</float>
      <float>0.9416441</float>
      <float>-0.999416053</float>
      <float>-0.9995686</float>
      <float>-0.8104888</float>
      <float>0.9449806</float>
      <float>0.963868439</float>
      <float>0.998500645</float>
      <float>0.9340482</float>
      <float>0.9857879</float>
      <float>-0.9987573</float>
      <float>0.997404754</float>
      <float>-0.887653947</float>
      <float>-0.991168439</float>
      <float>-0.999599636</float>
      <float>-0.316230536</float>
      <float>-0.7996185</float>
      <float>0.932800055</float>
      <float>0.5192752</float>
      <float>-0.8613197</float>
      <float>-0.355445325</float>
      <float>0.6757189</float>
      <float>-0.9382378</float>
      <float>0.985362</float>
      <float>0.887521565</float>
      <float>-0.9751773</float>
      <float>-0.3478012</float>
      <float>-0.404544979</float>
      <float>-0.377958059</float>
      <float>0.997132242</float>
      <float>-0.864946067</float>
      <float>-0.5825034</float>
      <float>0.705005</float>
      <float>-0.4886146</float>
      <float>-0.69664526</float>
      <float>0.958762348</float>
      <float>0.992971063</float>
      <float>0.463269323</float>
      <float>-0.4937645</float>
      <float>-0.290134132</float>
      <float>-0.9447541</float>
      <float>0.995097935</float>
      <float>0.988252342</float>
    </ArrayOfFloat>
  </neurons>
  <biases>
    <ArrayOfFloat>
      <float>-0.161851853</float>
      <float>-0.4336678</float>
      <float>-0.138266712</float>
      <float>0.1919232</float>
      <float>-0.138589174</float>
      <float>-0.226967722</float>
      <float>0.104172587</float>
      <float>-0.3069569</float>
      <float>0.440819025</float>
      <float>0.15924412</float>
      <float>0.163691342</float>
      <float>0.252987027</float>
      <float>0.430683076</float>
      <float>0.353011</float>
      <float>-0.148243546</float>
      <float>-0.1932826</float>
      <float>-0.145271748</float>
      <float>0.212354958</float>
      <float>-0.07654977</float>
      <float>-0.465691745</float>
      <float>-0.003234148</float>
      <float>-0.124559671</float>
      <float>0.108492434</float>
      <float>0.106948972</float>
      <float>-0.3990635</float>
      <float>-0.1489099</float>
      <float>-0.197560042</float>
      <float>0.156810641</float>
      <float>0.301729679</float>
      <float>0.396656632</float>
      <float>0.0546067357</float>
      <float>0.284494162</float>
      <float>-0.225758076</float>
      <float>0.4397335</float>
      <float>-0.48217833</float>
      <float>0.2551682</float>
      <float>-0.316885</float>
      <float>-0.261884868</float>
      <float>-0.111093551</float>
      <float>-0.0203539431</float>
      <float>-0.278255284</float>
      <float>-0.257533252</float>
      <float>-0.316746175</float>
      <float>-0.399678946</float>
      <float>-0.0404098928</float>
      <float>-0.429030985</float>
      <float>-0.239830792</float>
      <float>0.314874232</float>
      <float>-0.10748136</float>
      <float>-0.1508491</float>
      <float>0.2907126</float>
      <float>-0.477569461</float>
    </ArrayOfFloat>
    <ArrayOfFloat>
      <float>-0.1481106</float>
      <float>0.1132583</float>
      <float>-0.2588898</float>
      <float>0.188951075</float>
      <float>-0.315917</float>
      <float>-0.0189724565</float>
      <float>-0.182770014</float>
      <float>0.236563981</float>
      <float>0.196835577</float>
      <float>0.1736052</float>
      <float>-0.3824433</float>
      <float>0.27040565</float>
      <float>0.330880642</float>
      <float>0.1054405</float>
      <float>-0.2950116</float>
      <float>0.217192829</float>
      <float>0.06143266</float>
      <float>-0.177168459</float>
      <float>0.349845648</float>
      <float>0.3428564</float>
      <float>-0.4503082</float>
      <float>0.170047462</float>
      <float>0.0388067961</float>
      <float>0.480542421</float>
      <float>0.418429732</float>
      <float>-0.265585363</float>
      <float>0.373602152</float>
      <float>0.2562108</float>
      <float>0.317164183</float>
      <float>-0.286191</float>
      <float>0.490535259</float>
      <float>-0.321177959</float>
      <float>0.332187355</float>
      <float>-0.241580516</float>
      <float>-0.341152</float>
      <float>-0.11277312</float>
      <float>-0.07513344</float>
      <float>-0.444886178</float>
      <float>-0.202671587</float>
      <float>-0.07166928</float>
      <float>0.1471284</float>
      <float>-0.121414244</float>
      <float>0.009053767</float>
      <float>-0.2256172</float>
      <float>0.3511533</float>
      <float>-0.3609085</float>
      <float>0.49568367</float>
      <float>0.0803929</float>
      <float>0.09222388</float>
      <float>-0.230780363</float>
      <float>0.4796849</float>
      <float>0.2959304</float>
    </ArrayOfFloat>
    <ArrayOfFloat>
      <float>-0.2744515</float>
      <float>0.1740995</float>
      <float>0.198982</float>
      <float>-0.09191474</float>
      <float>0.300694764</float>
      <float>0.4868111</float>
      <float>-0.00323537</float>
      <float>0.175911665</float>
      <float>-0.166331321</float>
      <float>-0.21273753</float>
      <float>0.145643055</float>
      <float>-0.290730119</float>
      <float>-0.0906868</float>
      <float>0.164977908</float>
      <float>0.164461553</float>
      <float>-0.201295555</float>
      <float>-0.327164233</float>
      <float>0.0440047979</float>
      <float>-0.481430441</float>
      <float>-0.267437935</float>
      <float>0.251746416</float>
      <float>-0.3522418</float>
      <float>0.4219712</float>
      <float>-0.102650672</float>
      <float>0.387236953</float>
      <float>0.490667284</float>
      <float>0.355632365</float>
      <float>0.00558155775</float>
      <float>0.464974225</float>
      <float>-0.480547458</float>
      <float>0.390230179</float>
      <float>-0.225812167</float>
      <float>0.460367382</float>
      <float>0.420848131</float>
      <float>0.179516792</float>
      <float>0.3843311</float>
      <float>-0.214319259</float>
      <float>-0.0229939818</float>
      <float>-0.1872246</float>
      <float>-0.335701257</float>
      <float>-0.215407521</float>
      <float>-0.152339935</float>
      <float>0.320905328</float>
      <float>-0.413890779</float>
      <float>-0.0408140421</float>
      <float>-0.473972827</float>
      <float>0.0913128853</float>
      <float>0.412418664</float>
      <float>-0.299126834</float>
      <float>-0.07677749</float>
      <float>-0.3661996</float>
      <float>0.2744624</float>
    </ArrayOfFloat>
    <ArrayOfFloat>
      <float>0.476893365</float>
      <float>-0.0266339481</float>
      <float>0.270427227</float>
      <float>0.304033577</float>
      <float>-0.02162847</float>
      <float>-0.47212404</float>
      <float>-0.252908438</float>
      <float>0.0362707376</float>
      <float>0.357422</float>
      <float>0.21742636</float>
      <float>-0.06281933</float>
      <float>-0.4595406</float>
      <float>-0.376724422</float>
      <float>-0.4023015</float>
      <float>0.475145757</float>
      <float>-0.2852917</float>
      <float>0.211704373</float>
      <float>0.00637370348</float>
      <float>0.239266992</float>
      <float>-0.07792699</float>
      <float>0.457472682</float>
      <float>0.08051407</float>
      <float>0.174212873</float>
      <float>-0.3696704</float>
      <float>-0.446903855</float>
      <float>0.06210524</float>
      <float>0.164406657</float>
      <float>0.08745307</float>
      <float>-0.3744023</float>
      <float>0.169456959</float>
      <float>-0.469048381</float>
      <float>-0.232005</float>
      <float>0.111895382</float>
      <float>0.342011034</float>
      <float>-0.476462245</float>
      <float>-0.286755383</float>
      <float>0.376664162</float>
      <float>0.101726532</float>
      <float>-0.367797136</float>
      <float>0.484048069</float>
      <float>0.456157744</float>
      <float>0.00274789333</float>
      <float>-0.46688</float>
      <float>-0.206590623</float>
      <float>0.136722684</float>
      <float>0.006689191</float>
      <float>0.18907696</float>
      <float>-0.4122693</float>
      <float>0.2771247</float>
      <float>-0.397152156</float>
      <float>0.4269576</float>
      <float>-0.07925728</float>
    </ArrayOfFloat>
  </biases>
  <weights>
    <ArrayOfArrayOfFloat>
      <ArrayOfFloat>
        <float>-0.08980119</float>
        <float>-0.06202936</float>
        <float>0.0432329774</float>
        <float>-0.37737745</float>
        <float>0.0253964663</float>
        <float>-0.133659065</float>
        <float>-0.02281931</float>
        <float>0.14250952</float>
        <float>-0.41028744</float>
        <float>-0.114118218</float>
        <float>-0.363083661</float>
        <float>0.414208353</float>
        <float>-0.087282</float>
        <float>0.3954289</float>
        <float>-0.34519273</float>
        <float>-0.492492229</float>
        <float>0.300404</float>
        <float>-0.0118556023</float>
        <float>-0.4357126</float>
        <float>0.3362211</float>
        <float>-0.399585873</float>
        <float>-0.01853782</float>
        <float>-0.30784142</float>
        <float>-0.319031984</float>
        <float>-0.226362675</float>
        <float>-0.392953217</float>
        <float>-0.280149817</float>
        <float>-0.227349758</float>
        <float>0.0992715955</float>
        <float>-0.197080791</float>
        <float>0.0365716219</float>
        <float>0.2489931</float>
        <float>-0.03125739</float>
        <float>-0.163547814</float>
        <float>0.08403951</float>
        <float>0.400168061</float>
        <float>-0.474978656</float>
        <float>0.127158463</float>
        <float>-0.08590859</float>
        <float>-0.263433456</float>
        <float>0.35078907</float>
        <float>-0.2840634</float>
        <float>0.120578766</float>
        <float>-0.20348078</float>
        <float>-0.407925159</float>
        <float>0.345154941</float>
        <float>0.106934667</float>
        <float>-0.0324629843</float>
        <float>-0.421874821</float>
        <float>-0.09218758</float>
        <float>-0.486430049</float>
        <float>-0.484776437</float>
      </ArrayOfFloat>
      <ArrayOfFloat>
        <float>0.2648037</float>
        <float>0.316979766</float>
        <float>-0.453428149</float>
        <float>0.154979885</float>
        <float>0.472055316</float>
        <float>-0.411491752</float>
        <float>0.07522845</float>
        <float>-0.355407059</float>
        <float>0.372734</float>
        <float>0.430773735</float>
        <float>0.269481242</float>
        <float>0.0130366683</float>
        <float>0.07555342</float>
        <float>-0.3858335</float>
        <float>-0.328291</float>
        <float>0.302509069</float>
        <float>-0.4623673</float>
        <float>0.480882466</float>
        <float>0.208729684</float>
        <float>0.3994888</float>
        <float>0.300296247</float>
        <float>0.053964138</float>
        <float>0.211675286</float>
        <float>0.110720813</float>
        <float>0.08712667</float>
        <float>0.121882617</float>
        <float>0.315136433</float>
        <float>-0.345274329</float>
        <float>-0.273644626</float>
        <float>-0.0214435458</float>
        <float>0.420768321</float>
        <float>0.417702436</float>
        <float>-0.484407485</float>
        <float>-0.252408683</float>
        <float>0.210432649</float>
        <float>-0.12199384</float>
        <float>-0.483876377</float>
        <float>0.155302882</float>
        <float>0.154355943</float>
        <float>0.162756383</float>
        <float>0.278173268</float>
        <float>0.495741725</float>
        <float>-0.4099242</float>
        <float>0.146258652</float>
        <float>-0.327301353</float>
        <float>0.3337854</float>
        <float>-0.05279097</float>
        <float>0.20415163</float>
        <float>-0.100310773</float>
        <float>0.0306688547</float>
        <float>-0.343852431</float>
        <float>0.32348597</float>
      </ArrayOfFloat>
      <ArrayOfFloat>
        <float>-0.07467401</float>
        <float>0.3403244</float>
        <float>0.441170573</float>
        <float>0.437082827</float>
        <float>0.331547678</float>
        <float>-0.3379057</float>
        <float>0.29409647</float>
        <float>-0.423584</float>
        <float>0.499615073</float>
        <float>-0.353253931</float>
        <float>0.144480824</float>
        <float>-0.3795792</float>
        <float>0.236248672</float>
        <float>0.07802206</float>
        <float>-0.2763126</float>
        <float>-0.4457946</float>
        <float>-0.3700229</float>
        <float>0.0199460983</float>
        <float>0.0126287341</float>
        <float>-0.391426861</float>
        <float>-0.4472302</float>
        <float>0.272216618</float>
        <float>0.3475588</float>
        <float>0.03079778</float>
        <float>-0.3098684</float>
        <float>0.291659951</float>
        <float>-0.335734546</float>
        <float>-0.0204154253</float>
        <float>0.400916874</float>
        <float>0.337228119</float>
        <float>-0.018720299</float>
        <float>-0.07807019</float>
        <float>-0.451347858</float>
        <float>0.3235256</float>
        <float>-0.2813803</float>
        <float>0.401511371</float>
        <float>-0.467336</float>
        <float>-0.0004069209</float>
        <float>-0.22729826</float>
        <float>0.080272615</float>
        <float>0.08744967</float>
        <float>-0.195816755</float>
        <float>-0.1106154</float>
        <float>-0.142329544</float>
        <float>-0.422495842</float>
        <float>0.195898235</float>
        <float>0.136253238</float>
        <float>-0.179080129</float>
        <float>-0.163658738</float>
        <float>-0.38075307</float>
        <float>-0.199582219</float>
        <float>0.105986416</float>
      </ArrayOfFloat>
      <ArrayOfFloat>
        <float>0.244283378</float>
        <float>0.273817718</float>
        <float>-0.00304055214</float>
        <float>-0.120647341</float>
        <float>0.219008863</float>
        <float>-0.363383949</float>
        <float>-0.02680549</float>
        <float>0.266130984</float>
        <float>0.224072158</float>
        <float>-0.459244817</float>
        <float>0.4017424</float>
        <float>0.3886302</float>
        <float>-0.108290374</float>
        <float>0.4487943</float>
        <float>0.2980119</float>
        <float>0.138966322</float>
        <float>-0.4143544</float>
        <float>-0.4515807</float>
        <float>0.247784674</float>
        <float>-0.143372715</float>
        <float>0.473487616</float>
        <float>0.158599436</float>
        <float>-0.252633244</float>
        <float>-0.0251701772</float>
        <float>-0.3909247</float>
        <float>-0.283868372</float>
        <float>-0.320463061</float>
        <float>-0.279523373</float>
        <float>0.381650031</float>
        <float>0.06958884</float>
        <float>0.36948657</float>
        <float>0.007913172</float>
        <float>-0.236946374</float>
        <float>0.101536572</float>
        <float>-0.0961103141</float>
        <float>-0.4989223</float>
        <float>-0.447190583</float>
        <float>0.06551033</float>
        <float>0.408745766</float>
        <float>0.122291207</float>
        <float>0.252641857</float>
        <float>-0.267186</float>
        <float>0.0824437141</float>
        <float>-0.227062285</float>
        <float>-0.3713159</float>
        <float>-0.273002326</float>
        <float>0.192204118</float>
        <float>0.3549531</float>
        <float>0.124129593</float>
        <float>0.223530114</float>
        <float>0.461517572</float>
        <float>-0.485834777</float>
      </ArrayOfFloat>
      <ArrayOfFloat>
        <float>-0.402294457</float>
        <float>0.170033753</float>
        <float>-0.141257972</float>
        <float>0.311927259</float>
        <float>-0.247305751</float>
        <float>0.248372912</float>
        <float>0.496520638</float>
        <float>-0.270879447</float>
        <float>0.18332237</float>
        <float>0.47896117</float>
        <float>0.11072427</float>
        <float>0.380726576</float>
        <float>0.3975119</float>
        <float>-0.379927516</float>
        <float>-0.148180157</float>
        <float>0.0164163113</float>
        <float>-0.228852123</float>
        <float>0.0231775045</float>
        <float>-0.187599808</float>
        <float>-0.2536215</float>
        <float>0.365916848</float>
        <float>0.351736724</float>
        <float>-0.169771314</float>
        <float>-0.03308308</float>
        <float>0.30239898</float>
        <float>0.200672269</float>
        <float>-0.427611023</float>
        <float>0.108320892</float>
        <float>-0.249829233</float>
        <float>-0.4491729</float>
        <float>-0.177409708</float>
        <float>0.3843631</float>
        <float>-0.165685445</float>
        <float>0.0815646052</float>
        <float>-0.363549054</float>
        <float>-0.18073687</float>
        <float>0.469037831</float>
        <float>-0.181794286</float>
        <float>-0.02537325</float>
        <float>-0.469320178</float>
        <float>-0.204767019</float>
        <float>-0.09413153</float>
        <float>0.1652121</float>
        <float>-7.60257244E-05</float>
        <float>-0.151667</float>
        <float>-0.0720396042</float>
        <float>-0.3983309</float>
        <float>0.234854937</float>
        <float>0.101421118</float>
        <float>0.402031064</float>
        <float>-0.189951509</float>
        <float>0.3271954</float>
      </ArrayOfFloat>
      <ArrayOfFloat>
        <float>-0.362626761</float>
        <float>-0.05861768</float>
        <float>0.3744917</float>
        <float>0.472212136</float>
        <float>-0.433951676</float>
        <float>0.1180684</float>
        <float>0.235771537</float>
        <float>-0.221734792</float>
        <float>-0.09777281</float>
        <float>-0.385557</float>
        <float>0.205193043</float>
        <float>-0.141261429</float>
        <float>-0.117385894</float>
        <float>-0.0473956168</float>
        <float>-0.227344692</float>
        <float>-0.457809448</float>
        <float>0.2098648</float>
        <float>0.25879997</float>
        <float>-0.226378262</float>
        <float>0.17918545</float>
        <float>0.274794042</float>
        <float>-0.492036372</float>
        <float>0.177388787</float>
        <float>-0.313708365</float>
        <float>0.4127679</float>
        <float>0.056548</float>
        <float>0.344827175</float>
        <float>-0.399318159</float>
        <float>-0.174753547</float>
        <float>-0.436222672</float>
        <float>0.233143091</float>
        <float>-0.425617039</float>
        <float>-0.0329781473</float>
        <float>-0.2783618</float>
        <float>-0.0267668366</float>
        <float>0.119175494</float>
        <float>-0.0666838</float>
        <float>0.390482068</float>
        <float>0.4794581</float>
        <float>-0.422787249</float>
        <float>-0.191322565</float>
        <float>0.4226048</float>
        <float>-0.145304114</float>
        <float>0.407033265</float>
        <float>-0.0730813146</float>
        <float>-0.467283219</float>
        <float>0.343553126</float>
        <float>0.121971905</float>
        <float>0.381548345</float>
        <float>0.285721838</float>
        <float>0.251233339</float>
        <float>0.0688644052</float>
      </ArrayOfFloat>
      <ArrayOfFloat>
        <float>-0.145347387</float>
        <float>-0.142893672</float>
        <float>0.278644621</float>
        <float>0.355652869</float>
        <float>-0.009763211</float>
        <float>-0.0855566859</float>
        <float>0.2856875</float>
        <float>-0.264256358</float>
        <float>-0.0005155206</float>
        <float>-0.138666987</float>
        <float>0.179262042</float>
        <float>-0.435306877</float>
        <float>-0.39245683</float>
        <float>-0.142946661</float>
        <float>0.117960036</float>
        <float>0.3872192</float>
        <float>0.205614448</float>
        <float>-0.120276928</float>
        <float>-0.164882392</float>
        <float>0.0456259847</float>
        <float>0.00558519363</float>
        <float>0.422652245</float>
        <float>-0.4032487</float>
        <float>0.0784325</float>
        <float>-0.120488971</float>
        <float>-0.00340121984</float>
        <float>-0.0143837929</float>
        <float>0.106294334</float>
        <float>-0.0607619</float>
        <float>0.449098527</float>
        <float>0.445376754</float>
        <float>-0.234232068</float>
        <float>-0.461212754</float>
        <float>0.390521944</float>
        <float>-0.0540263653</float>
        <float>0.336158752</float>
        <float>-0.330763161</float>
        <float>-0.156176418</float>
        <float>0.355182</float>
        <float>0.245116174</float>
        <float>0.331037819</float>
        <float>-0.03004229</float>
        <float>-0.196028471</float>
        <float>0.17358768</float>
        <float>0.469586074</float>
        <float>-0.483753949</float>
        <float>0.0257333517</float>
        <float>0.2961086</float>
        <float>-0.358999968</float>
        <float>0.1825772</float>
        <float>0.142600715</float>
        <float>-0.27193144</float>
      </ArrayOfFloat>
      <ArrayOfFloat>
        <float>-0.3231525</float>
        <float>0.4318506</float>
        <float>0.289522469</float>
        <float>-0.3417564</float>
        <float>0.4865983</float>
        <float>0.426455379</float>
        <float>-0.297614872</float>
        <float>0.2198813</float>
        <float>0.155070364</float>
        <float>0.40563643</float>
        <float>0.0227488279</float>
        <float>-0.22337079</float>
        <float>-0.357800484</float>
        <float>-0.360262632</float>
        <float>0.2521491</float>
        <float>0.443264484</float>
        <float>0.137322962</float>
        <float>0.008044481</float>
        <float>-0.05577436</float>
        <float>-0.411965847</float>
        <float>-0.249215633</float>
        <float>-0.183755308</float>
        <float>-0.0591685474</float>
        <float>0.261870742</float>
        <float>-0.155076</float>
        <float>-0.35059315</float>
        <float>-0.164910287</float>
        <float>-0.410491765</float>
        <float>0.197108686</float>
        <float>-0.08424917</float>
        <float>-0.308462441</float>
        <float>-0.017095834</float>
        <float>-0.4672589</float>
        <float>-0.05644855</float>
        <float>0.315163732</float>
        <float>0.3331799</float>
        <float>0.327242732</float>
        <float>-0.4860267</float>
        <float>0.07580376</float>
        <float>0.469024718</float>
        <float>0.367681742</float>
        <float>0.361543953</float>
        <float>0.316289067</float>
        <float>0.151644647</float>
        <float>0.173452139</float>
        <float>0.253585577</float>
        <float>-0.242368579</float>
        <float>0.0560919642</float>
        <float>0.490340173</float>
        <float>-0.191287845</float>
        <float>0.3850289</float>
        <float>-0.140801191</float>
      </ArrayOfFloat>
      <ArrayOfFloat>
        <float>0.464594841</float>
        <float>-0.21919021</float>
        <float>0.203527451</float>
        <float>0.08684605</float>
        <float>-0.282737553</float>
        <float>0.253894985</float>
        <float>0.03956288</float>
        <float>0.06343472</float>
        <float>-0.182391047</float>
        <float>0.33912015</float>
        <float>0.249015868</float>
        <float>0.46556282</float>
        <float>-0.0596578419</float>
        <float>0.2660879</float>
        <float>0.4701314</float>
        <float>-0.07510865</float>
        <float>-0.449183077</float>
        <float>0.145212531</float>
        <float>0.342265</float>
        <float>-0.150407046</float>
        <float>0.158484042</float>
        <float>-0.2985558</float>
        <float>0.446595728</float>
        <float>-0.384516329</float>
        <float>-0.2738011</float>
        <float>0.0154300332</float>
        <float>0.31466186</float>
        <float>-0.182418287</float>
        <float>0.118018746</float>
        <float>0.00524103642</float>
        <float>0.32541132</float>
        <float>-0.385360181</float>
        <float>-0.24303481</float>
        <float>0.0585820079</float>
        <float>-0.255447417</float>
        <float>-0.0218254328</float>
        <float>-0.0337327421</float>
        <float>0.454560935</float>
        <float>-0.1578393</float>
        <float>0.299591</float>
        <float>-0.299346268</float>
        <float>0.2386123</float>
        <float>-0.122340977</float>
        <float>0.25480485</float>
        <float>0.3387714</float>
        <float>0.0769695044</float>
        <float>0.437545776</float>
        <float>0.1336075</float>
        <float>0.009697497</float>
        <float>0.058983326</float>
        <float>-0.268481731</float>
        <float>-0.428629041</float>
      </ArrayOfFloat>
      <ArrayOfFloat>
        <float>-0.307309568</float>
        <float>-0.238320738</float>
        <float>-0.0730419457</float>
        <float>-0.01060611</float>
        <float>-0.439542621</float>
        <float>-0.185712963</float>
        <float>-0.4131096</float>
        <float>-0.07192433</float>
        <float>0.165476441</float>
        <float>0.448224425</float>
        <float>0.171659231</float>
        <float>0.0386111736</float>
        <float>0.239952087</float>
        <float>-0.139380664</float>
        <float>-0.06515908</float>
        <float>0.108003378</float>
        <float>-0.2522214</float>
        <float>-0.2817999</float>
        <float>0.184867382</float>
        <float>0.322499275</float>
        <float>-0.470704943</float>
        <float>0.268917263</float>
        <float>0.3751825</float>
        <float>0.146115</float>
        <float>0.0500284433</float>
        <float>0.418034136</float>
        <float>-0.4970444</float>
        <float>-0.124527305</float>
        <float>-0.195872456</float>
        <float>0.4072976</float>
        <float>0.0341275334</float>
        <float>0.285278678</float>
        <float>0.499966025</float>
        <float>-0.0197163522</float>
        <float>0.148192644</float>
        <float>0.221529186</float>
        <float>0.357867241</float>
        <float>-0.01859805</float>
        <float>-0.356039524</float>
        <float>0.378223479</float>
        <float>0.09391379</float>
        <float>0.140328288</float>
        <float>0.360357881</float>
        <float>0.478672564</float>
        <float>0.293196321</float>
        <float>0.06529111</float>
        <float>0.24109602</float>
        <float>-0.295604676</float>
        <float>0.368371844</float>
        <float>-0.444214344</float>
        <float>-0.38792783</float>
        <float>-0.482259333</float>
      </ArrayOfFloat>
      <ArrayOfFloat>
        <float>0.100359261</float>
        <float>-0.364737719</float>
        <float>0.26831913</float>
        <float>-0.3499835</float>
        <float>-0.38725996</float>
        <float>0.00708633661</float>
        <float>0.1656087</float>
        <float>0.36866653</float>
        <float>-0.462425262</float>
        <float>-0.0623390377</float>
        <float>0.3501914</float>
        <float>-0.0155778825</float>
        <float>-0.359659821</float>
        <float>0.11262387</float>
        <float>-0.235111564</float>
        <float>0.485911727</float>
        <float>-0.06133005</float>
        <float>-0.06044504</float>
        <float>-0.0236206055</float>
        <float>-0.0073800683</float>
        <float>0.300482869</float>
        <float>0.0328871</float>
        <float>0.454828739</float>
        <float>-0.384789973</float>
        <float>0.134802639</float>
        <float>0.1227532</float>
        <float>0.07916194</float>
        <float>0.210980654</float>
        <float>0.403181434</float>
        <float>0.02480352</float>
        <float>-0.2666559</float>
        <float>0.474585176</float>
        <float>0.021468699</float>
        <float>-0.257369876</float>
        <float>0.411162674</float>
        <float>0.09094703</float>
        <float>-0.0617922544</float>
        <float>-0.275580585</float>
        <float>-0.164967537</float>
        <float>-0.422975779</float>
        <float>0.0420365334</float>
        <float>-0.498462766</float>
        <float>0.06689203</float>
        <float>0.382496119</float>
        <float>0.01638019</float>
        <float>-0.397820979</float>
        <float>0.06457567</float>
        <float>0.4068157</float>
        <float>-0.473354071</float>
        <float>-0.01857248</float>
        <float>-0.008031368</float>
        <float>-0.344939828</float>
      </ArrayOfFloat>
      <ArrayOfFloat>
        <float>-0.194350451</float>
        <float>-0.154304475</float>
        <float>0.443501055</float>
        <float>0.293715358</float>
        <float>0.406676829</float>
        <float>-0.120647609</float>
        <float>-0.2585429</float>
        <float>-0.2837699</float>
        <float>0.154167593</float>
        <float>0.180871308</float>
        <float>0.191728354</float>
        <float>-0.2609855</float>
        <float>0.4305601</float>
        <float>0.1018495</float>
        <float>0.1891967</float>
        <float>0.123953342</float>
        <float>-0.07229555</float>
        <float>-0.09981531</float>
        <float>-0.226052731</float>
        <float>0.440493822</float>
        <float>0.330765784</float>
        <float>-0.37440154</float>
        <float>0.176826656</float>
        <float>0.0251888633</float>
        <float>0.192238331</float>
        <float>0.298575878</float>
        <float>-0.1749269</float>
        <float>-0.2411331</float>
        <float>0.2844208</float>
        <float>-0.101410478</float>
        <float>-0.08942202</float>
        <float>-0.352002859</float>
        <float>0.259078145</float>
        <float>0.304527223</float>
        <float>-0.104821116</float>
        <float>0.4020164</float>
        <float>-0.4746277</float>
        <float>0.343690574</float>
        <float>-0.08948651</float>
        <float>0.2850986</float>
        <float>0.209205627</float>
        <float>0.345045626</float>
        <float>-0.3509001</float>
        <float>0.08740848</float>
        <float>-0.463947862</float>
        <float>-0.4458792</float>
        <float>0.178179264</float>
        <float>0.140773952</float>
        <float>-0.3607744</float>
        <float>0.166865587</float>
        <float>-0.2946455</float>
        <float>-0.1472955</float>
      </ArrayOfFloat>
      <ArrayOfFloat>
        <float>0.4337235</float>
        <float>-0.2222819</float>
        <float>-0.449462354</float>
        <float>0.406294346</float>
        <float>-0.104887873</float>
        <float>-0.355444551</float>
        <float>0.327720284</float>
        <float>0.334344149</float>
        <float>0.280522585</float>
        <float>0.208833456</float>
        <float>-0.341947436</float>
        <float>0.481821358</float>
        <float>0.4965366</float>
        <float>-0.23002553</float>
        <float>-0.293820381</float>
        <float>0.3522762</float>
        <float>0.4329139</float>
        <float>0.013423562</float>
        <float>-0.1751757</float>
        <float>-0.189742833</float>
        <float>0.215914488</float>
        <float>-0.2849081</float>
        <float>0.457531452</float>
        <float>0.211963415</float>
        <float>0.202741861</float>
        <float>0.31566143</float>
        <float>-0.28462</float>
        <float>-0.135639191</float>
        <float>0.346639931</float>
        <float>-0.0894576</float>
        <float>0.345884562</float>
        <float>0.343798518</float>
        <float>0.4194783</float>
        <float>0.284116745</float>
        <float>0.4405169</float>
        <float>-0.292396665</float>
        <float>-0.019767195</float>
        <float>-0.284872174</float>
        <float>-0.266852468</float>
        <float>0.107060075</float>
        <float>0.242213547</float>
        <float>-0.1975874</float>
        <float>0.230819285</float>
        <float>0.226615369</float>
        <float>-0.08676368</float>
        <float>0.3935218</float>
        <float>-0.182884842</float>
        <float>-0.007679075</float>
        <float>0.07418448</float>
        <float>0.0521463156</float>
        <float>-0.06589663</float>
        <float>-0.1479547</float>
      </ArrayOfFloat>
      <ArrayOfFloat>
        <float>-0.431715429</float>
        <float>0.121340632</float>
        <float>-0.1369667</float>
        <float>-0.0551251173</float>
        <float>-0.4535701</float>
        <float>-0.4351825</float>
        <float>0.429795742</float>
        <float>-0.194306046</float>
        <float>0.155418754</float>
        <float>-0.310397238</float>
        <float>0.213947475</float>
        <float>-0.403776526</float>
        <float>0.08919215</float>
        <float>-0.459502667</float>
        <float>0.288586378</float>
        <float>0.438663125</float>
        <float>-0.444299161</float>
        <float>0.224819541</float>
        <float>-0.401713341</float>
        <float>-0.05597067</float>
        <float>-0.4934807</float>
        <float>-0.0559925139</float>
        <float>-0.205713123</float>
        <float>-0.360254854</float>
        <float>-0.2894841</float>
        <float>0.45715934</float>
        <float>-0.475029618</float>
        <float>0.0354633331</float>
        <float>-0.27521044</float>
        <float>-0.0506976545</float>
        <float>0.01641959</float>
        <float>-0.4792631</float>
        <float>0.202682316</float>
        <float>-0.279917479</float>
        <float>0.00175720453</float>
        <float>-0.4756191</float>
        <float>-0.3526733</float>
        <float>-0.278114676</float>
        <float>0.387416661</float>
        <float>-0.3583414</float>
        <float>-0.4884247</float>
        <float>0.153696835</float>
        <float>0.177884638</float>
        <float>-0.221145958</float>
        <float>-0.185291648</float>
        <float>-0.139160872</float>
        <float>0.363666475</float>
        <float>-0.401017725</float>
        <float>0.331178725</float>
        <float>-0.39530468</float>
        <float>-0.337136626</float>
        <float>0.0756081939</float>
      </ArrayOfFloat>
      <ArrayOfFloat>
        <float>-0.3198971</float>
        <float>0.2163173</float>
        <float>-0.428230733</float>
        <float>-0.149479657</float>
        <float>-0.446702957</float>
        <float>0.449531436</float>
        <float>0.460602283</float>
        <float>0.315513849</float>
        <float>0.2660904</float>
        <float>-0.3794243</float>
        <float>0.307147622</float>
        <float>0.432359636</float>
        <float>-0.10057354</float>
        <float>-0.08054614</float>
        <float>-0.3802156</float>
        <float>-0.404647082</float>
        <float>-0.235016584</float>
        <float>-0.009551257</float>
        <float>0.0175796747</float>
        <float>0.0600588322</float>
        <float>0.06364614</float>
        <float>0.182871342</float>
        <float>-0.3413027</float>
        <float>-0.4209343</float>
        <float>-0.00763389468</float>
        <float>0.241676092</float>
        <float>0.05128008</float>
        <float>0.0759200454</float>
        <float>0.319736123</float>
        <float>0.1522314</float>
        <float>-0.0694721043</float>
        <float>0.346337557</float>
        <float>-0.487317741</float>
        <float>0.167054653</float>
        <float>0.0668772459</float>
        <float>0.212608278</float>
        <float>0.374556541</float>
        <float>0.377480149</float>
        <float>0.197327137</float>
        <float>0.4240386</float>
        <float>0.4875263</float>
        <float>0.298146129</float>
        <float>-0.398188531</float>
        <float>0.117242873</float>
        <float>0.07279247</float>
        <float>-0.02823177</float>
        <float>0.105670869</float>
        <float>0.12149775</float>
        <float>0.467297971</float>
        <float>-0.00544315577</float>
        <float>0.0602421165</float>
        <float>-0.433026761</float>
      </ArrayOfFloat>
      <ArrayOfFloat>
        <float>-0.186641067</float>
        <float>-0.170952171</float>
        <float>0.238205373</float>
        <float>-0.27652514</float>
        <float>-0.216136724</float>
        <float>0.218946815</float>
        <float>0.0843974948</float>
        <float>-0.462135822</float>
        <float>-0.3755054</float>
        <float>-0.3890745</float>
        <float>0.222020984</float>
        <float>0.340102315</float>
        <float>-0.08370894</float>
        <float>0.187053382</float>
        <float>0.1459207</float>
        <float>-0.0413849354</float>
        <float>0.07881987</float>
        <float>-0.366580576</float>
        <float>0.447039664</float>
        <float>-0.386253446</float>
        <float>0.0193648934</float>
        <float>-0.180215657</float>
        <float>-0.201224238</float>
        <float>-0.008256733</float>
        <float>-0.19269684</float>
        <float>-0.232302308</float>
        <float>-0.267483473</float>
        <float>0.246841133</float>
        <float>0.36224854</float>
        <float>0.156025589</float>
        <float>-0.165134668</float>
        <float>-0.448577464</float>
        <float>0.318232536</float>
        <float>-0.410202056</float>
        <float>-0.240778118</float>
        <float>-0.09012231</float>
        <float>0.1550926</float>
        <float>-0.430354327</float>
        <float>-0.3450117</float>
        <float>0.381852984</float>
        <float>-0.480674118</float>
        <float>-0.114293784</float>
        <float>0.0257872343</float>
        <float>0.102844119</float>
        <float>0.3023684</float>
        <float>0.4879524</float>
        <float>0.427195072</float>
        <float>0.111982346</float>
        <float>0.0520908237</float>
        <float>0.373299062</float>
        <float>0.268921137</float>
        <float>0.0601218343</float>
      </ArrayOfFloat>
      <ArrayOfFloat>
        <float>-0.226239532</float>
        <float>-0.32726115</float>
        <float>-0.226148367</float>
        <float>0.219817817</float>
        <float>0.256515324</float>
        <float>0.472705364</float>
        <float>0.142414927</float>
        <float>0.242408872</float>
        <float>-0.2873264</float>
        <float>0.06379962</float>
        <float>0.401858926</float>
        <float>-0.305287659</float>
        <float>0.0023034215</float>
        <float>-0.103158265</float>
        <float>0.248113036</float>
        <float>-0.4472636</float>
        <float>-0.3459252</float>
        <float>0.462286234</float>
        <float>0.0297657847</float>
        <float>-0.2645825</float>
        <float>0.204674423</float>
        <float>0.291429937</float>
        <float>0.320663929</float>
        <float>0.3599019</float>
        <float>0.0202404261</float>
        <float>-0.07782507</float>
        <float>-0.08438188</float>
        <float>-0.454406023</float>
        <float>-0.433254123</float>
        <float>-0.153222591</float>
        <float>0.420993567</float>
        <float>0.215192735</float>
        <float>0.113347709</float>
        <float>0.0009868145</float>
        <float>0.00390529633</float>
        <float>-0.128263056</float>
        <float>0.0421895981</float>
        <float>-0.234352708</float>
        <float>-0.120394379</float>
        <float>-0.09136951</float>
        <float>-0.346526</float>
        <float>-0.3611773</float>
        <float>-0.104577363</float>
        <float>-0.31823048</float>
        <float>-0.289909482</float>
        <float>-0.442681849</float>
        <float>0.326783955</float>
        <float>-0.368230045</float>
        <float>0.4660827</float>
        <float>0.100701988</float>
        <float>-0.315849155</float>
        <float>-0.183952153</float>
      </ArrayOfFloat>
      <ArrayOfFloat>
        <float>-0.4302234</float>
        <float>-0.240253091</float>
        <float>0.08169067</float>
        <float>-0.291426182</float>
        <float>-0.421681821</float>
        <float>-0.359807</float>
        <float>0.4258207</float>
        <float>-0.439416319</float>
        <float>-0.21666953</float>
        <float>-0.176935762</float>
        <float>-0.09809375</float>
        <float>0.09213942</float>
        <float>-0.13095066</float>
        <float>0.4129095</float>
        <float>-0.192392111</float>
        <float>0.227559865</float>
        <float>0.119179666</float>
        <float>-0.39738065</float>
        <float>-0.2632099</float>
        <float>0.114670753</float>
        <float>-0.1910761</float>
        <float>0.347378552</float>
        <float>0.308186769</float>
        <float>-0.207905024</float>
        <float>-0.377749443</float>
        <float>-0.134862334</float>
        <float>-0.123945326</float>
        <float>-0.310834467</float>
        <float>-0.178365737</float>
        <float>-0.489908576</float>
        <float>0.3057546</float>
        <float>-0.3077128</float>
        <float>0.388869822</float>
        <float>-0.168811</float>
        <float>-0.1283406</float>
        <float>-0.420155942</float>
        <float>0.1455394</float>
        <float>-0.4784252</float>
        <float>-0.480337977</float>
        <float>-0.37176013</float>
        <float>-0.433930129</float>
        <float>-0.454734772</float>
        <float>0.3515433</float>
        <float>0.0566530228</float>
        <float>-0.03684026</float>
        <float>0.0295264721</float>
        <float>0.0389634371</float>
        <float>-0.4765757</float>
        <float>-0.02404648</float>
        <float>0.3254673</float>
        <float>-0.261166453</float>
        <float>0.0897066</float>
      </ArrayOfFloat>
      <ArrayOfFloat>
        <float>-0.409844875</float>
        <float>-0.204276621</float>
        <float>0.2333672</float>
        <float>0.4486413</float>
        <float>-0.322196573</float>
        <float>-0.484161019</float>
        <float>0.312566519</float>
        <float>-0.0605762</float>
        <float>-0.00961840153</float>
        <float>-0.0371015668</float>
        <float>-0.0348073244</float>
        <float>0.499482334</float>
        <float>-0.256447077</float>
        <float>0.4358623</float>
        <float>-0.07048714</float>
        <float>0.2641036</float>
        <float>-0.232506633</float>
        <float>0.4540071</float>
        <float>0.308263779</float>
        <float>-0.176151842</float>
        <float>0.309200644</float>
        <float>0.3347935</float>
        <float>-0.22515586</float>
        <float>0.4899019</float>
        <float>0.2220785</float>
        <float>0.477777</float>
        <float>0.0551785231</float>
        <float>-0.181032628</float>
        <float>0.0524175167</float>
        <float>-0.421126366</float>
        <float>-0.06054473</float>
        <float>-0.2775898</float>
        <float>-0.00249886513</float>
        <float>0.44229126</float>
        <float>0.32837534</float>
        <float>-0.18061024</float>
        <float>-0.17593497</float>
        <float>-0.350738645</float>
        <float>0.128283918</float>
        <float>-0.14405632</float>
        <float>0.435251534</float>
        <float>-0.19351849</float>
        <float>-0.135898471</float>
        <float>-0.1705853</float>
        <float>-0.193684191</float>
        <float>0.07830423</float>
        <float>-0.4606566</float>
        <float>-0.246459335</float>
        <float>0.326256871</float>
        <float>0.00110310316</float>
        <float>-0.0178258121</float>
        <float>-0.2518103</float>
      </ArrayOfFloat>
      <ArrayOfFloat>
        <float>0.243446827</float>
        <float>0.141228676</float>
        <float>0.00674921274</float>
        <float>0.481604874</float>
        <float>0.247122467</float>
        <float>-0.0302914381</float>
        <float>0.452806056</float>
        <float>0.4262697</float>
        <float>-0.313096225</float>
        <float>-0.2801576</float>
        <float>0.11324954</float>
        <float>-0.362248778</float>
        <float>0.24968648</float>
        <float>0.469025731</float>
        <float>-0.271775544</float>
        <float>-0.4724951</float>
        <float>0.33373028</float>
        <float>0.336366415</float>
        <float>-0.333718151</float>
        <float>0.344475269</float>
        <float>-0.4480335</float>
        <float>-0.321436644</float>
        <float>-0.385160148</float>
        <float>-0.271037638</float>
        <float>-0.303064764</float>
        <float>0.1716727</float>
        <float>-0.09017062</float>
        <float>0.370017529</float>
        <float>0.164676845</float>
        <float>-0.4721189</float>
        <float>-0.281046242</float>
        <float>0.277557671</float>
        <float>-0.1770573</float>
        <float>0.417508841</float>
        <float>-0.2947933</float>
        <float>0.08251572</float>
        <float>-0.338214666</float>
        <float>0.07301372</float>
        <float>-0.201489478</float>
        <float>0.0805997252</float>
        <float>0.422698557</float>
        <float>-0.0717425346</float>
        <float>0.395283163</float>
        <float>-0.0583475828</float>
        <float>-0.0805248</float>
        <float>0.452593565</float>
        <float>-0.1940285</float>
        <float>-0.436466634</float>
        <float>-0.423676938</float>
        <float>0.238081753</float>
        <float>-0.353946328</float>
        <float>0.216133773</float>
      </ArrayOfFloat>
      <ArrayOfFloat>
        <float>-0.438935459</float>
        <float>-0.136057824</float>
        <float>0.422466457</float>
        <float>-0.208873272</float>
        <float>-0.247367889</float>
        <float>-0.4959699</float>
        <float>0.0109128952</float>
        <float>0.301693022</float>
        <float>0.2861225</float>
        <float>0.309031785</float>
        <float>0.487836123</float>
        <float>0.385265946</float>
        <float>0.2271319</float>
        <float>0.0619351864</float>
        <float>0.041051805</float>
        <float>0.0584208965</float>
        <float>-0.009937674</float>
        <float>-0.128048</float>
        <float>0.0919628143</float>
        <float>0.486959875</float>
        <float>-0.235900879</float>
        <float>-0.188074619</float>
        <float>0.148020029</float>
        <float>-0.15004769</float>
        <float>-0.490476549</float>
        <float>-0.100569278</float>
        <float>0.03573042</float>
        <float>0.470584929</float>
        <float>-0.408055544</float>
        <float>-0.42746073</float>
        <float>0.0199377537</float>
        <float>0.152838349</float>
        <float>0.108070672</float>
        <float>-0.270936728</float>
        <float>-0.0572636127</float>
        <float>0.185243785</float>
        <float>0.221285641</float>
        <float>0.140323222</float>
        <float>-0.4438731</float>
        <float>0.3839985</float>
        <float>0.288344026</float>
        <float>-0.276939273</float>
        <float>0.0207205415</float>
        <float>0.33991003</float>
        <float>-0.33333537</float>
        <float>0.236260533</float>
        <float>-0.05923623</float>
        <float>0.08378327</float>
        <float>-0.362214983</float>
        <float>-0.0262061059</float>
        <float>-0.2002857</float>
        <float>-0.06938568</float>
      </ArrayOfFloat>
      <ArrayOfFloat>
        <float>0.3723622</float>
        <float>0.385337055</float>
        <float>-0.3217221</float>
        <float>-0.0246175528</float>
        <float>-0.0578345656</float>
        <float>-0.201242536</float>
        <float>-0.492153466</float>
        <float>0.07944465</float>
        <float>-0.305457056</float>
        <float>-0.233428746</float>
        <float>-0.06400815</float>
        <float>-0.06017354</float>
        <float>-0.484662682</float>
        <float>-0.438759</float>
        <float>-0.4965615</float>
        <float>-0.275688082</float>
        <float>0.345442057</float>
        <float>0.08205128</float>
        <float>0.06337851</float>
        <float>0.07598239</float>
        <float>-0.4579316</float>
        <float>-0.06579238</float>
        <float>0.424859047</float>
        <float>0.267281651</float>
        <float>0.0174481273</float>
        <float>0.0343532562</float>
        <float>0.409530938</float>
        <float>0.499506176</float>
        <float>0.184910238</float>
        <float>0.17819041</float>
        <float>0.05904317</float>
        <float>-0.155606151</float>
        <float>-0.0009317398</float>
        <float>0.315566719</float>
        <float>0.00671941042</float>
        <float>-0.0510231256</float>
        <float>0.27702862</float>
        <float>0.1935972</float>
        <float>0.4693216</float>
        <float>-0.351228535</float>
        <float>-0.141280055</float>
        <float>-0.2970745</float>
        <float>-0.08430117</float>
        <float>-0.251983941</float>
        <float>0.013312161</float>
        <float>0.3071373</float>
        <float>0.05081594</float>
        <float>0.3316669</float>
        <float>-0.04093471</float>
        <float>0.442695141</float>
        <float>-0.03541553</float>
        <float>-0.218023</float>
      </ArrayOfFloat>
      <ArrayOfFloat>
        <float>0.136658669</float>
        <float>-0.0500248075</float>
        <float>-0.3852108</float>
        <float>-0.3356021</float>
        <float>0.186721265</float>
        <float>-0.362760484</float>
        <float>0.184177577</float>
        <float>0.134055436</float>
        <float>-0.384530216</float>
        <float>0.234583616</float>
        <float>0.120777726</float>
        <float>-0.2574042</float>
        <float>-0.06622869</float>
        <float>0.3178413</float>
        <float>0.167001486</float>
        <float>0.4260139</float>
        <float>-0.219235152</float>
        <float>-0.219295114</float>
        <float>-0.326473475</float>
        <float>0.378088117</float>
        <float>-0.161027044</float>
        <float>-0.359149635</float>
        <float>0.4435057</float>
        <float>0.0653861761</float>
        <float>0.244752049</float>
        <float>-0.0969137251</float>
        <float>0.480212748</float>
        <float>-0.0634459555</float>
        <float>0.209780574</float>
        <float>0.3041073</float>
        <float>-0.233315825</float>
        <float>-0.0315416455</float>
        <float>0.4398492</float>
        <float>-0.496690542</float>
        <float>-0.06602153</float>
        <float>0.275336325</float>
        <float>-0.07297924</float>
        <float>-0.431435168</float>
        <float>-0.0115011334</float>
        <float>-0.133967578</float>
        <float>0.235662878</float>
        <float>-0.43849057</float>
        <float>0.259544969</float>
        <float>-0.149620414</float>
        <float>-0.191608936</float>
        <float>0.3993463</float>
        <float>0.0404880047</float>
        <float>-0.07828584</float>
        <float>0.366379142</float>
        <float>-0.14895466</float>
        <float>-0.222854674</float>
        <float>0.40460366</float>
      </ArrayOfFloat>
      <ArrayOfFloat>
        <float>-0.004588127</float>
        <float>-0.187260389</float>
        <float>0.169247329</float>
        <float>-0.277948439</float>
        <float>-0.267287254</float>
        <float>-0.2243537</float>
        <float>-0.3541109</float>
        <float>-0.490121722</float>
        <float>0.383270025</float>
        <float>0.47386682</float>
        <float>0.150518179</float>
        <float>-0.462394267</float>
        <float>-0.305857271</float>
        <float>0.378562629</float>
        <float>-0.471010149</float>
        <float>-0.343294859</float>
        <float>-0.389893919</float>
        <float>0.117908418</float>
        <float>-0.2747636</float>
        <float>0.4384433</float>
        <float>0.0184493065</float>
        <float>0.03373736</float>
        <float>0.3686685</float>
        <float>-0.4962932</float>
        <float>-0.392451316</float>
        <float>-0.180630624</float>
        <float>0.4832384</float>
        <float>0.0716490149</float>
        <float>0.0888415</float>
        <float>-0.215258121</float>
        <float>-0.20358181</float>
        <float>-0.4150215</float>
        <float>-0.24679473</float>
        <float>-0.411676228</float>
        <float>0.199289739</float>
        <float>-0.146647125</float>
        <float>-0.439694583</float>
        <float>0.4381702</float>
        <float>-0.231133163</float>
        <float>0.377617717</float>
        <float>0.148918986</float>
        <float>-0.295136154</float>
        <float>-0.290994346</float>
        <float>-0.0119606256</float>
        <float>-0.362765461</float>
        <float>-0.0518175066</float>
        <float>0.382480145</float>
        <float>-0.3439283</float>
        <float>0.09659976</float>
        <float>-0.389973849</float>
        <float>-0.462148666</float>
        <float>0.474713981</float>
      </ArrayOfFloat>
      <ArrayOfFloat>
        <float>0.3520522</float>
        <float>-0.435054719</float>
        <float>-0.387602359</float>
        <float>0.187917769</float>
        <float>-0.329685628</float>
        <float>-0.108216226</float>
        <float>0.340746164</float>
        <float>0.139586627</float>
        <float>-0.4813488</float>
        <float>-0.199516654</float>
        <float>-0.352719963</float>
        <float>-0.1752286</float>
        <float>-0.09630811</float>
        <float>-0.208217084</float>
        <float>0.0106437206</float>
        <float>0.332062185</float>
        <float>0.405516148</float>
        <float>-0.0981197655</float>
        <float>0.322642982</float>
        <float>0.398179173</float>
        <float>-0.424715132</float>
        <float>-0.426138073</float>
        <float>-0.484232426</float>
        <float>-0.4601713</float>
        <float>-0.449025</float>
        <float>-0.3931276</float>
        <float>0.09271556</float>
        <float>-0.114390552</float>
        <float>-0.336867481</float>
        <float>0.053409934</float>
        <float>0.201292515</float>
        <float>-0.294941366</float>
        <float>0.4731338</float>
        <float>-0.4520525</float>
        <float>0.459169567</float>
        <float>0.414503276</float>
        <float>0.202169418</float>
        <float>0.237615287</float>
        <float>0.4092818</float>
        <float>-0.1052351</float>
        <float>0.3236673</float>
        <float>-0.144476533</float>
        <float>0.08520979</float>
        <float>-0.425321072</float>
        <float>0.283827126</float>
        <float>0.110477567</float>
        <float>0.310590744</float>
        <float>0.07169491</float>
        <float>0.16378206</float>
        <float>0.276661217</float>
        <float>0.476798832</float>
        <float>0.4209628</float>
      </ArrayOfFloat>
      <ArrayOfFloat>
        <float>-0.4863736</float>
        <float>0.365915418</float>
        <float>0.12567234</float>
        <float>0.00443357229</float>
        <float>0.275420964</float>
        <float>0.2988122</float>
        <float>-0.136813968</float>
        <float>0.289685249</float>
        <float>0.02531153</float>
        <float>-0.318620026</float>
        <float>-0.2973026</float>
        <float>-0.3085155</float>
        <float>-0.174565941</float>
        <float>0.168464661</float>
        <float>-0.42211917</float>
        <float>-0.418012351</float>
        <float>-0.441143364</float>
        <float>-0.177616268</float>
        <float>0.356136084</float>
        <float>0.394144177</float>
        <float>-0.281158268</float>
        <float>-0.3458786</float>
        <float>0.300755143</float>
        <float>-0.05399531</float>
        <float>-0.285104632</float>
        <float>0.167331934</float>
        <float>0.482244849</float>
        <float>-0.333259284</float>
        <float>-0.477475077</float>
        <float>0.247263908</float>
        <float>-0.0519293249</float>
        <float>-0.3872854</float>
        <float>-0.197145581</float>
        <float>0.00657302141</float>
        <float>0.417675555</float>
        <float>0.3334617</float>
        <float>-0.351481616</float>
        <float>-0.319020748</float>
        <float>0.36532557</float>
        <float>0.129600465</float>
        <float>-0.3993275</float>
        <float>0.3458398</float>
        <float>0.09569669</float>
        <float>-0.1314694</float>
        <float>0.379069328</float>
        <float>-0.3800314</float>
        <float>-0.0245118737</float>
        <float>0.341605783</float>
        <float>-0.24116</float>
        <float>-0.0451536179</float>
        <float>-0.2609185</float>
        <float>-0.4323584</float>
      </ArrayOfFloat>
      <ArrayOfFloat>
        <float>0.146768391</float>
        <float>0.3088979</float>
        <float>-0.07163566</float>
        <float>0.0857483149</float>
        <float>0.291403532</float>
        <float>0.405910969</float>
        <float>-0.484218538</float>
        <float>0.334332347</float>
        <float>0.04281062</float>
        <float>0.4226886</float>
        <float>-0.00659641623</float>
        <float>0.004290879</float>
        <float>-0.0404474437</float>
        <float>0.316226065</float>
        <float>0.11487335</float>
        <float>0.0451043248</float>
        <float>-0.0229676366</float>
        <float>0.470662415</float>
        <float>0.1597125</float>
        <float>0.104120672</float>
        <float>-0.316698551</float>
        <float>0.452778876</float>
        <float>0.0197148919</float>
        <float>-0.4007548</float>
        <float>-0.215332</float>
        <float>-0.341532141</float>
        <float>-0.206821382</float>
        <float>0.3211701</float>
        <float>0.418087065</float>
        <float>0.366882384</float>
        <float>0.134144008</float>
        <float>-0.206078172</float>
        <float>-0.265574336</float>
        <float>-0.393327653</float>
        <float>-0.307810545</float>
        <float>-0.279800236</float>
        <float>0.304451942</float>
        <float>-0.4418295</float>
        <float>0.268301427</float>
        <float>0.468850732</float>
        <float>0.391441047</float>
        <float>0.257236481</float>
        <float>0.3130331</float>
        <float>0.4042272</float>
        <float>-0.4213205</float>
        <float>0.317649066</float>
        <float>0.1352213</float>
        <float>0.289086521</float>
        <float>-0.2686615</float>
        <float>0.156627059</float>
        <float>-0.409183353</float>
        <float>-0.485579163</float>
      </ArrayOfFloat>
      <ArrayOfFloat>
        <float>0.0213771462</float>
        <float>-0.138795882</float>
        <float>0.110583425</float>
        <float>-0.0797672</float>
        <float>-0.484573722</float>
        <float>-0.444637567</float>
        <float>-0.472676426</float>
        <float>-0.140821069</float>
        <float>-0.161024392</float>
        <float>0.4208547</float>
        <float>0.142488539</float>
        <float>-0.09782845</float>
        <float>-0.485212117</float>
        <float>0.425725043</float>
        <float>0.496108472</float>
        <float>-0.420876533</float>
        <float>-0.149720132</float>
        <float>-0.379083157</float>
        <float>-0.03310439</float>
        <float>-0.354894876</float>
        <float>0.428604245</float>
        <float>-0.08289492</float>
        <float>-0.0610771179</float>
        <float>-0.347691745</float>
        <float>0.365989029</float>
        <float>-0.158268988</float>
        <float>0.246808946</float>
        <float>-0.3067378</float>
        <float>-0.250510156</float>
        <float>-0.269664645</float>
        <float>-0.183925182</float>
        <float>0.487703264</float>
        <float>0.00230896473</float>
        <float>-0.154033571</float>
        <float>-0.00121206045</float>
        <float>0.0994647741</float>
        <float>-0.2776678</float>
        <float>-0.00180006027</float>
        <float>0.431016743</float>
        <float>-0.0246671736</float>
        <float>0.2570902</float>
        <float>-0.364634216</float>
        <float>-0.143881649</float>
        <float>0.196829677</float>
        <float>0.3409912</float>
        <float>-0.3628952</float>
        <float>0.1156826</float>
        <float>0.379197776</float>
        <float>0.04778385</float>
        <float>-0.2176589</float>
        <float>-0.33495006</float>
        <float>0.336664915</float>
      </ArrayOfFloat>
      <ArrayOfFloat>
        <float>0.415974736</float>
        <float>0.171954811</float>
        <float>0.31205982</float>
        <float>0.330515325</float>
        <float>0.148524523</float>
        <float>-0.315481573</float>
        <float>-0.219512969</float>
        <float>-0.100061446</float>
        <float>-0.465203226</float>
        <float>0.06030464</float>
        <float>0.335932374</float>
        <float>0.3348835</float>
        <float>-0.1689769</float>
        <float>-0.118971437</float>
        <float>0.126105845</float>
        <float>-0.104935288</float>
        <float>-0.346819639</float>
        <float>-0.377113044</float>
        <float>0.0830345154</float>
        <float>0.0783231854</float>
        <float>0.416143358</float>
        <float>0.217806041</float>
        <float>-0.3857418</float>
        <float>0.0194817185</float>
        <float>0.28723</float>
        <float>-0.031663537</float>
        <float>-0.4624397</float>
        <float>-0.0448725224</float>
        <float>-0.0477083027</float>
        <float>0.09385443</float>
        <float>-0.1282784</float>
        <float>0.193391979</float>
        <float>0.2915287</float>
        <float>-0.294346839</float>
        <float>0.297971785</float>
        <float>0.05659747</float>
        <float>-0.239850134</float>
        <float>-0.1054841</float>
        <float>0.177183568</float>
        <float>0.26405704</float>
        <float>0.4439562</float>
        <float>-0.242678523</float>
        <float>-0.333220661</float>
        <float>0.423028827</float>
        <float>-0.474323332</float>
        <float>-0.2525219</float>
        <float>-0.407950163</float>
        <float>-0.313794076</float>
        <float>-0.262757748</float>
        <float>0.446861148</float>
        <float>-0.047739327</float>
        <float>-0.3488598</float>
      </ArrayOfFloat>
      <ArrayOfFloat>
        <float>-0.074450165</float>
        <float>-0.187029988</float>
        <float>0.146764815</float>
        <float>0.424411952</float>
        <float>-0.216060132</float>
        <float>-0.481178641</float>
        <float>0.269528627</float>
        <float>0.406431317</float>
        <float>0.37320137</float>
        <float>0.05160284</float>
        <float>0.173890114</float>
        <float>-0.3328144</float>
        <float>0.414826334</float>
        <float>0.368783653</float>
        <float>0.269598126</float>
        <float>0.351613224</float>
        <float>-0.190699965</float>
        <float>0.295751631</float>
        <float>0.361158133</float>
        <float>-0.0150922835</float>
        <float>-0.328053325</float>
        <float>0.0452207923</float>
        <float>-0.139389724</float>
        <float>-0.114934862</float>
        <float>-0.222730011</float>
        <float>0.4174726</float>
        <float>-0.279951632</float>
        <float>-0.234004825</float>
        <float>-0.3974701</float>
        <float>0.07759768</float>
        <float>0.4441285</float>
        <float>-0.268326163</float>
        <float>0.367837</float>
        <float>0.44682467</float>
        <float>0.494085431</float>
        <float>-0.295198083</float>
        <float>-0.2148684</float>
        <float>0.09980315</float>
        <float>0.4989009</float>
        <float>0.467571735</float>
        <float>-0.148769438</float>
        <float>-0.00300452113</float>
        <float>0.117098927</float>
        <float>-0.3814034</float>
        <float>-0.19032535</float>
        <float>0.225836992</float>
        <float>0.23444581</float>
        <float>0.383136272</float>
        <float>-0.295876771</float>
        <float>0.466679871</float>
        <float>0.103149176</float>
        <float>-0.332266122</float>
      </ArrayOfFloat>
      <ArrayOfFloat>
        <float>0.311946273</float>
        <float>0.193596244</float>
        <float>0.205436826</float>
        <float>0.10657233</float>
        <float>0.178603</float>
        <float>0.487943</float>
        <float>-0.126614779</float>
        <float>-0.4072895</float>
        <float>0.0250163078</float>
        <float>-0.2702233</float>
        <float>0.0301446915</float>
        <float>-0.47815302</float>
        <float>-0.166282386</float>
        <float>-0.331540465</float>
        <float>-0.47440815</float>
        <float>0.194244921</float>
        <float>0.100941479</float>
        <float>-0.208960533</float>
        <float>-0.207275122</float>
        <float>-0.06425983</float>
        <float>0.023094058</float>
        <float>0.119829595</float>
        <float>0.359920442</float>
        <float>-0.09880555</float>
        <float>0.154365122</float>
        <float>0.46825695</float>
        <float>0.301633775</float>
        <float>-0.222323716</float>
        <float>0.4092701</float>
        <float>-0.436844677</float>
        <float>0.2881152</float>
        <float>0.36209327</float>
        <float>0.200691819</float>
        <float>0.00263786316</float>
        <float>-0.354029179</float>
        <float>0.400484085</float>
        <float>0.467631161</float>
        <float>-0.3862436</float>
        <float>-0.247557789</float>
        <float>-0.4765681</float>
        <float>0.452661157</float>
        <float>0.132433653</float>
        <float>-0.331201255</float>
        <float>0.347697139</float>
        <float>0.193094075</float>
        <float>-0.178504765</float>
        <float>0.0111222863</float>
        <float>0.3674584</float>
        <float>-0.07351157</float>
        <float>0.266444147</float>
        <float>-0.4915619</float>
        <float>0.139327049</float>
      </ArrayOfFloat>
      <ArrayOfFloat>
        <float>-0.09980172</float>
        <float>0.39365226</float>
        <float>-0.1291169</float>
        <float>0.418359935</float>
        <float>0.05991906</float>
        <float>-0.4695144</float>
        <float>0.178450525</float>
        <float>-0.06341067</float>
        <float>0.412552476</float>
        <float>0.321952224</float>
        <float>0.4096837</float>
        <float>-0.311895758</float>
        <float>-0.3320952</float>
        <float>-0.105705321</float>
        <float>-0.452601552</float>
        <float>0.05732298</float>
        <float>0.248731971</float>
        <float>0.351351023</float>
        <float>-0.0471429527</float>
        <float>-0.286571652</float>
        <float>0.264840543</float>
        <float>0.495536268</float>
        <float>-0.290677726</float>
        <float>0.116903663</float>
        <float>-0.322725832</float>
        <float>0.238466561</float>
        <float>-0.0656563342</float>
        <float>-0.440886855</float>
        <float>-0.316622078</float>
        <float>0.16041863</float>
        <float>0.07743108</float>
        <float>0.369069219</float>
        <float>0.2809605</float>
        <float>0.3750314</float>
        <float>-0.311861753</float>
        <float>0.0332828164</float>
        <float>0.357998073</float>
        <float>0.453854144</float>
        <float>-0.433191746</float>
        <float>0.163388789</float>
        <float>-0.338450849</float>
        <float>0.042096138</float>
        <float>0.337122679</float>
        <float>0.35695225</float>
        <float>-0.0510067642</float>
        <float>0.20693779</float>
        <float>-0.09396437</float>
        <float>-0.474957377</float>
        <float>-0.499659956</float>
        <float>0.180042565</float>
        <float>0.34496963</float>
        <float>-0.198619336</float>
      </ArrayOfFloat>
      <ArrayOfFloat>
        <float>-0.4601696</float>
        <float>0.02125305</float>
        <float>0.100729764</float>
        <float>-0.369094729</float>
        <float>-0.0894267261</float>
        <float>-0.019777298</float>
        <float>-0.0326709449</float>
        <float>0.047695756</float>
        <float>-0.177614808</float>
        <float>-0.154419363</float>
        <float>0.479454637</float>
        <float>0.4783771</float>
        <float>0.4707644</float>
        <float>0.266857743</float>
        <float>-0.366612971</float>
        <float>-0.4808834</float>
        <float>0.4323997</float>
        <float>-0.259641081</float>
        <float>-0.07443178</float>
        <float>0.0211211443</float>
        <float>0.0107860565</float>
        <float>0.0157114863</float>
        <float>0.278122425</float>
        <float>0.448987663</float>
        <float>0.384656847</float>
        <float>-0.421386719</float>
        <float>0.3941537</float>
        <float>-0.303420335</float>
        <float>-0.441325784</float>
        <float>-0.3644557</float>
        <float>0.285016358</float>
        <float>-0.270421326</float>
        <float>0.0416922569</float>
        <float>-0.4977063</float>
        <float>0.05548209</float>
        <float>0.4859507</float>
        <float>-0.499455065</float>
        <float>0.283476233</float>
        <float>0.34895283</float>
        <float>-0.3959814</float>
        <float>-0.287231654</float>
        <float>-0.254644275</float>
        <float>-0.432753116</float>
        <float>0.04221177</float>
        <float>-0.211115241</float>
        <float>0.08498883</float>
        <float>0.112431109</float>
        <float>-0.09162125</float>
        <float>-0.200205982</float>
        <float>-0.386837721</float>
        <float>0.31888622</float>
        <float>-0.0137755871</float>
      </ArrayOfFloat>
      <ArrayOfFloat>
        <float>0.4807176</float>
        <float>-0.4499082</float>
        <float>0.0168378353</float>
        <float>-0.249637812</float>
        <float>-0.030626148</float>
        <float>-0.122014642</float>
        <float>0.472491682</float>
        <float>-0.44179675</float>
        <float>-0.187687725</float>
        <float>0.496992648</float>
        <float>-0.284735143</float>
        <float>0.413084149</float>
        <float>-0.213192433</float>
        <float>-0.02388072</float>
        <float>-0.337071866</float>
        <float>0.19471395</float>
        <float>0.437618971</float>
        <float>0.373679578</float>
        <float>0.244814932</float>
        <float>0.3751667</float>
        <float>-0.382350624</float>
        <float>-0.452207118</float>
        <float>-0.465403944</float>
        <float>0.4916736</float>
        <float>-0.3252921</float>
        <float>0.4621539</float>
        <float>-0.113653809</float>
        <float>-0.474088669</float>
        <float>-0.30757457</float>
        <float>-0.287981778</float>
        <float>0.123028934</float>
        <float>0.1717552</float>
        <float>-0.4570986</float>
        <float>-0.4749648</float>
        <float>0.475104332</float>
        <float>-0.282156259</float>
        <float>-0.288300872</float>
        <float>-0.468636841</float>
        <float>-0.257179856</float>
        <float>-0.151197135</float>
        <float>0.03722781</float>
        <float>0.0169928074</float>
        <float>0.0179495811</float>
        <float>0.442018926</float>
        <float>0.2563342</float>
        <float>0.380406022</float>
        <float>0.4816475</float>
        <float>0.0390087366</float>
        <float>-0.351696044</float>
        <float>0.143960476</float>
        <float>-0.302996933</float>
        <float>-0.3476423</float>
      </ArrayOfFloat>
      <ArrayOfFloat>
        <float>-0.405409366</float>
        <float>0.169962764</float>
        <float>-0.405181676</float>
        <float>0.159168</float>
        <float>0.241738975</float>
        <float>-0.248592466</float>
        <float>0.3018976</float>
        <float>-0.2665368</float>
        <float>0.217882454</float>
        <float>0.172823608</float>
        <float>0.09202111</float>
        <float>0.3265373</float>
        <float>-0.399793</float>
        <float>-0.23024708</float>
        <float>0.09642601</float>
        <float>0.488015652</float>
        <float>-0.2727418</float>
        <float>0.171327651</float>
        <float>-0.29074192</float>
        <float>0.132499039</float>
        <float>-0.142897308</float>
        <float>-0.377744675</float>
        <float>-0.435817838</float>
        <float>-0.1731002</float>
        <float>-0.243913442</float>
        <float>0.318820357</float>
        <float>0.46158272</float>
        <float>-0.479454845</float>
        <float>0.206749678</float>
        <float>0.07358068</float>
        <float>0.1038506</float>
        <float>-0.225291789</float>
        <float>0.241258442</float>
        <float>-0.3030855</float>
        <float>-0.196592182</float>
        <float>-0.40081808</float>
        <float>0.156460166</float>
        <float>-0.457820415</float>
        <float>-0.297652</float>
        <float>0.186534882</float>
        <float>0.455708861</float>
        <float>0.235600233</float>
        <float>-0.1428363</float>
        <float>0.09064746</float>
        <float>0.151215017</float>
        <float>-0.08234447</float>
        <float>0.06805521</float>
        <float>-0.287175477</float>
        <float>-0.489776731</float>
        <float>0.2198751</float>
        <float>-0.462006181</float>
        <float>-0.296780437</float>
      </ArrayOfFloat>
      <ArrayOfFloat>
        <float>-0.339054316</float>
        <float>-0.209252715</float>
        <float>0.0214983225</float>
        <float>0.198578537</float>
        <float>-0.167976141</float>
        <float>-0.00583821535</float>
        <float>-0.370675266</float>
        <float>0.149161875</float>
        <float>-0.4839319</float>
        <float>0.007595718</float>
        <float>-0.247043222</float>
        <float>0.37054503</float>
        <float>0.295216262</float>
        <float>-0.456443846</float>
        <float>0.3115222</float>
        <float>0.1295358</float>
        <float>0.192588329</float>
        <float>-0.276512623</float>
        <float>-0.442201227</float>
        <float>0.411321878</float>
        <float>-0.3047771</float>
        <float>-0.251033545</float>
        <float>-0.0969665349</float>
        <float>-0.152254254</float>
        <float>-0.008665085</float>
        <float>-0.300222039</float>
        <float>-0.09807193</float>
        <float>0.06467432</float>
        <float>0.477008462</float>
        <float>-0.0249985456</float>
        <float>0.236565173</float>
        <float>0.213117838</float>
        <float>-0.238169819</float>
        <float>-0.373125672</float>
        <float>0.340005815</float>
        <float>-0.323245585</float>
        <float>-0.09834054</float>
        <float>-0.168927461</float>
        <float>-0.006598681</float>
        <float>0.388541639</float>
        <float>0.139098108</float>
        <float>-0.220570624</float>
        <float>-0.103289962</float>
        <float>-0.325643539</float>
        <float>-0.291113257</float>
        <float>-0.287138045</float>
        <float>0.0216744542</float>
        <float>-0.166097879</float>
        <float>-0.1676234</float>
        <float>0.164762676</float>
        <float>-0.253520548</float>
        <float>0.01297915</float>
      </ArrayOfFloat>
      <ArrayOfFloat>
        <float>-0.111680359</float>
        <float>0.352915168</float>
        <float>0.234239936</float>
        <float>0.138222516</float>
        <float>0.113957107</float>
        <float>0.399995863</float>
        <float>0.433486879</float>
        <float>0.358489156</float>
        <float>0.318476975</float>
        <float>-0.2091063</float>
        <float>-0.10160327</float>
        <float>-0.232690066</float>
        <float>-0.00272619724</float>
        <float>-0.2339178</float>
        <float>-0.1650419</float>
        <float>-0.105414808</float>
        <float>0.429793656</float>
        <float>-0.138988942</float>
        <float>0.454119623</float>
        <float>-0.4122409</float>
        <float>-0.0436706841</float>
        <float>0.395500422</float>
        <float>0.498467028</float>
        <float>0.1420368</float>
        <float>0.0784996748</float>
        <float>0.4549203</float>
        <float>0.3651023</float>
        <float>-0.495283753</float>
        <float>-0.0956532359</float>
        <float>0.2942692</float>
        <float>0.458540976</float>
        <float>-0.461510956</float>
        <float>0.45476526</float>
        <float>0.44982928</float>
        <float>-0.448958516</float>
        <float>-0.364841729</float>
        <float>-0.3811223</float>
        <float>0.428026557</float>
        <float>-0.210959435</float>
        <float>-0.272093117</float>
        <float>-0.3761711</float>
        <float>-0.138844579</float>
        <float>0.296307921</float>
        <float>-0.4255523</float>
        <float>0.1072759</float>
        <float>0.3556434</float>
        <float>-0.0966740847</float>
        <float>0.169047832</float>
        <float>0.104147136</float>
        <float>0.35333252</float>
        <float>-0.369648218</float>
        <float>0.197608769</float>
      </ArrayOfFloat>
      <ArrayOfFloat>
        <float>-0.06311366</float>
        <float>0.384963632</float>
        <float>0.282893121</float>
        <float>-0.2809375</float>
        <float>0.0806914</float>
        <float>0.318446338</float>
        <float>0.2859661</float>
        <float>-0.1147199</float>
        <float>0.26113683</float>
        <float>0.155013919</float>
        <float>-0.3196143</float>
        <float>0.250451028</float>
        <float>-0.441404</float>
        <float>-0.413849026</float>
        <float>-0.461212069</float>
        <float>-0.22631219</float>
        <float>0.441283941</float>
        <float>0.4260431</float>
        <float>-0.498049229</float>
        <float>0.228010356</float>
        <float>0.29821378</float>
        <float>-0.0475440025</float>
        <float>0.190173447</float>
        <float>0.321417153</float>
        <float>0.325435758</float>
        <float>0.1502626</float>
        <float>0.26100415</float>
        <float>-0.05090043</float>
        <float>-0.222162366</float>
        <float>0.422297716</float>
        <float>-0.3731876</float>
        <float>-0.222742528</float>
        <float>-0.10983929</float>
        <float>0.487175465</float>
        <float>-0.172154039</float>
        <float>0.296044946</float>
        <float>0.393179417</float>
        <float>0.0582222342</float>
        <float>-0.219289869</float>
        <float>-0.4733254</float>
        <float>0.368303776</float>
        <float>0.13000375</float>
        <float>-0.3069867</float>
        <float>-0.304941773</float>
        <float>0.407013</float>
        <float>0.272100151</float>
        <float>0.242095</float>
        <float>-0.252631783</float>
        <float>0.0430987477</float>
        <float>0.3558814</float>
        <float>-0.04599288</float>
        <float>-0.0956527</float>
      </ArrayOfFloat>
      <ArrayOfFloat>
        <float>0.0776250362</float>
        <float>-0.371415317</float>
        <float>0.1256383</float>
        <float>0.210673571</float>
        <float>0.421033382</float>
        <float>0.187719226</float>
        <float>-0.380129963</float>
        <float>0.15667206</float>
        <float>0.283685446</float>
        <float>-0.436890244</float>
        <float>0.3336857</float>
        <float>0.06508237</float>
        <float>-0.245555192</float>
        <float>0.129371464</float>
        <float>-0.4134664</float>
        <float>0.2976638</float>
        <float>-0.0154517293</float>
        <float>0.468986273</float>
        <float>-0.393248379</float>
        <float>-0.390695035</float>
        <float>-0.12842378</float>
        <float>0.20151943</float>
        <float>0.0859499</float>
        <float>0.3944533</float>
        <float>0.485685945</float>
        <float>-0.278641462</float>
        <float>0.140647411</float>
        <float>0.279578865</float>
        <float>0.134410918</float>
        <float>-0.2601208</float>
        <float>0.13224411</float>
        <float>-0.351800442</float>
        <float>-0.305466115</float>
        <float>-0.0512916446</float>
        <float>-0.07412428</float>
        <float>0.4878193</float>
        <float>-0.412219584</float>
        <float>-0.156584352</float>
        <float>0.101254761</float>
        <float>0.4317035</float>
        <float>-0.335404515</float>
        <float>-0.149718672</float>
        <float>0.46923244</float>
        <float>0.03143722</float>
        <float>0.0225613117</float>
        <float>-0.1458258</float>
        <float>0.1668567</float>
        <float>-0.4961152</float>
        <float>-0.08819023</float>
        <float>0.170674443</float>
        <float>-0.0109367669</float>
        <float>-0.199644268</float>
      </ArrayOfFloat>
      <ArrayOfFloat>
        <float>-0.024627</float>
        <float>-0.4290546</float>
        <float>0.2590143</float>
        <float>0.102348864</float>
        <float>-0.231121927</float>
        <float>-0.0425717533</float>
        <float>-0.0487691164</float>
        <float>-0.07408184</float>
        <float>0.273315072</float>
        <float>-0.43346557</float>
        <float>0.24850446</float>
        <float>-0.229950488</float>
        <float>-0.3428911</float>
        <float>-0.088270545</float>
        <float>-0.403208226</float>
        <float>0.03197974</float>
        <float>0.429739058</float>
        <float>0.3249576</float>
        <float>-0.06387335</float>
        <float>0.3673759</float>
        <float>-0.406025231</float>
        <float>0.40129143</float>
        <float>0.170952737</float>
        <float>0.247538149</float>
        <float>-0.041469723</float>
        <float>0.280755877</float>
        <float>-0.401864737</float>
        <float>-0.142244965</float>
        <float>-0.219254911</float>
        <float>-0.136994123</float>
        <float>-0.40598762</float>
        <float>0.189979732</float>
        <float>-0.0229407251</float>
        <float>-0.441868335</float>
        <float>-0.100930184</float>
        <float>0.3498317</float>
        <float>-0.0840626955</float>
        <float>0.0497701168</float>
        <float>-0.05481553</float>
        <float>-0.143404543</float>
        <float>0.118428051</float>
        <float>0.401579916</float>
        <float>0.3846317</float>
        <float>0.324304342</float>
        <float>-0.171979815</float>
        <float>-0.0745738447</float>
        <float>-0.3994284</float>
        <float>0.3370751</float>
        <float>0.4836257</float>
        <float>0.361120224</float>
        <float>0.300389051</float>
        <float>-0.18690455</float>
      </ArrayOfFloat>
      <ArrayOfFloat>
        <float>0.460791051</float>
        <float>-0.15206939</float>
        <float>0.432624221</float>
        <float>-0.199675143</float>
        <float>-0.373764038</float>
        <float>0.237719417</float>
        <float>0.370061874</float>
        <float>-0.285634547</float>
        <float>-0.414463758</float>
        <float>0.319719136</float>
        <float>0.37141633</float>
        <float>-0.363447547</float>
        <float>0.198765337</float>
        <float>0.284768</float>
        <float>0.0192335248</float>
        <float>0.325220525</float>
        <float>0.238902926</float>
        <float>0.4732033</float>
        <float>0.3422857</float>
        <float>-0.3937878</float>
        <float>-0.3939836</float>
        <float>0.3057745</float>
        <float>0.475191116</float>
        <float>0.4186381</float>
        <float>0.242903</float>
        <float>0.07289165</float>
        <float>-0.354238749</float>
        <float>0.259347379</float>
        <float>-0.09357244</float>
        <float>0.487303436</float>
        <float>-0.399627417</float>
        <float>-0.354131877</float>
        <float>-0.211139888</float>
        <float>0.007160187</float>
        <float>-0.044568032</float>
        <float>0.3553719</float>
        <float>0.351750672</float>
        <float>0.3249882</float>
        <float>-0.0501609445</float>
        <float>-0.0955388546</float>
        <float>-0.09404847</float>
        <float>0.4570623</float>
        <float>0.497302473</float>
        <float>0.0249521732</float>
        <float>0.256406844</float>
        <float>-0.025677532</float>
        <float>0.351782322</float>
        <float>-0.230504543</float>
        <float>0.132435918</float>
        <float>-0.498405665</float>
        <float>0.3244155</float>
        <float>0.236665666</float>
      </ArrayOfFloat>
      <ArrayOfFloat>
        <float>0.245077848</float>
        <float>-0.07957989</float>
        <float>0.43332237</float>
        <float>0.3812598</float>
        <float>-0.401017249</float>
        <float>0.240229368</float>
        <float>-0.216334879</float>
        <float>-0.220412463</float>
        <float>-0.181798548</float>
        <float>0.336957753</float>
        <float>0.0341811776</float>
        <float>0.324476123</float>
        <float>-0.05441019</float>
        <float>-0.0482085347</float>
        <float>0.07393563</float>
        <float>0.4178484</float>
        <float>-0.444420725</float>
        <float>-0.10989511</float>
        <float>0.199713111</float>
        <float>0.140158</float>
        <float>-0.250392467</float>
        <float>-0.3359322</float>
        <float>-0.07349604</float>
        <float>0.375197351</float>
        <float>0.0347152948</float>
        <float>-0.3235178</float>
        <float>0.388474584</float>
        <float>0.4948238</float>
        <float>-0.0526473522</float>
        <float>0.102509081</float>
        <float>0.353154778</float>
        <float>-0.3689235</float>
        <float>0.3891312</float>
        <float>-0.4100498</float>
        <float>-0.3729664</float>
        <float>0.09468329</float>
        <float>-0.1999189</float>
        <float>-0.1995846</float>
        <float>-0.0173675716</float>
        <float>0.337764561</float>
        <float>-0.232433617</float>
        <float>0.396494746</float>
        <float>0.31250298</float>
        <float>-0.204762936</float>
        <float>-0.350875616</float>
        <float>0.3990696</float>
        <float>0.30560565</float>
        <float>-0.469141364</float>
        <float>0.126630127</float>
        <float>0.160177171</float>
        <float>0.44015944</float>
        <float>0.4685743</float>
      </ArrayOfFloat>
      <ArrayOfFloat>
        <float>-0.4718755</float>
        <float>0.410500765</float>
        <float>-0.2866986</float>
        <float>-0.192746729</float>
        <float>0.220159411</float>
        <float>0.284368277</float>
        <float>-0.4272122</float>
        <float>0.148743808</float>
        <float>0.0779981</float>
        <float>-0.484915435</float>
        <float>0.0584781766</float>
        <float>-0.05806434</float>
        <float>0.210046232</float>
        <float>-0.37065208</float>
        <float>0.161588192</float>
        <float>-0.4181171</float>
        <float>-0.448998839</float>
        <float>0.2054956</float>
        <float>-0.155989438</float>
        <float>-0.0185928643</float>
        <float>0.133715749</float>
        <float>0.08819181</float>
        <float>-0.401165128</float>
        <float>-0.420643955</float>
        <float>-0.422191858</float>
        <float>0.357510149</float>
        <float>-0.0476837754</float>
        <float>-0.138111055</float>
        <float>-0.402880162</float>
        <float>0.0838592052</float>
        <float>-0.405563027</float>
        <float>0.0134187341</float>
        <float>-0.111407131</float>
        <float>0.11082375</float>
        <float>0.329195261</float>
        <float>0.204873681</float>
        <float>0.1028921</float>
        <float>0.0460235476</float>
        <float>0.100767136</float>
        <float>-0.2580439</float>
        <float>0.4538709</float>
        <float>0.0601318479</float>
        <float>0.486009777</float>
        <float>0.478725076</float>
        <float>-0.435740143</float>
        <float>-0.403189421</float>
        <float>-0.18856591</float>
        <float>0.246019721</float>
        <float>0.463724732</float>
        <float>-0.0500339568</float>
        <float>0.2061007</float>
        <float>0.147377789</float>
      </ArrayOfFloat>
      <ArrayOfFloat>
        <float>-0.457590163</float>
        <float>-0.3150044</float>
        <float>-0.438898176</float>
        <float>-0.333824039</float>
        <float>0.03790921</float>
        <float>0.3601886</float>
        <float>0.455688417</float>
        <float>0.08889252</float>
        <float>-0.4417047</float>
        <float>-0.06285787</float>
        <float>-0.222132742</float>
        <float>0.220382154</float>
        <float>0.146890879</float>
        <float>0.2713027</float>
        <float>0.279586017</float>
        <float>0.3254658</float>
        <float>-0.473604083</float>
        <float>0.182957768</float>
        <float>-0.294765949</float>
        <float>-0.268779129</float>
        <float>0.330971718</float>
        <float>0.328297734</float>
        <float>-0.246220469</float>
        <float>0.299827158</float>
        <float>-0.171574682</float>
        <float>0.346353054</float>
        <float>0.241339445</float>
        <float>0.20724082</float>
        <float>-0.227680653</float>
        <float>-0.06746024</float>
        <float>-0.3755925</float>
        <float>-0.126602918</float>
        <float>0.10400176</float>
        <float>-0.3266976</float>
        <float>-0.302747816</float>
        <float>0.429840565</float>
        <float>-0.224034816</float>
        <float>-0.110737413</float>
        <float>0.3932078</float>
        <float>-0.0310532749</float>
        <float>-0.183421582</float>
        <float>0.238117874</float>
        <float>0.409904122</float>
        <float>-0.257027984</float>
        <float>-0.491492152</float>
        <float>0.49187088</float>
        <float>-0.441922516</float>
        <float>-0.480799556</float>
        <float>-0.4565322</float>
        <float>-0.2877884</float>
        <float>-0.05413291</float>
        <float>-0.492989749</float>
      </ArrayOfFloat>
      <ArrayOfFloat>
        <float>0.47097522</float>
        <float>-0.298876882</float>
        <float>0.04264939</float>
        <float>0.44035542</float>
        <float>0.157459319</float>
        <float>0.487517953</float>
        <float>0.06399393</float>
        <float>-0.08220059</float>
        <float>0.345092416</float>
        <float>0.474690855</float>
        <float>-0.45718354</float>
        <float>-0.1480012</float>
        <float>-0.461022079</float>
        <float>0.130713463</float>
        <float>0.342623651</float>
        <float>-0.300168276</float>
        <float>-0.199706227</float>
        <float>0.07598877</float>
        <float>-0.224256128</float>
        <float>-0.136623383</float>
        <float>0.0159932375</float>
        <float>-0.0374694169</float>
        <float>0.140885711</float>
        <float>0.319097042</float>
        <float>0.144636869</float>
        <float>0.237050772</float>
        <float>0.0175625682</float>
        <float>-0.4372023</float>
        <float>0.014518857</float>
        <float>-0.05161771</float>
        <float>-0.109983712</float>
        <float>0.286351025</float>
        <float>0.212915957</float>
        <float>0.3436405</float>
        <float>-0.3713349</float>
        <float>-0.3708781</float>
        <float>-0.143103689</float>
        <float>0.483140051</float>
        <float>0.4986245</float>
        <float>-0.4853095</float>
        <float>0.0515119433</float>
        <float>-0.298348367</float>
        <float>-0.149902433</float>
        <float>-0.431869179</float>
